{
    "layer_sizes": [
        784,
        16,
        16,
        10
    ],
    "weights": [
        [
            [
                0.4575934776766356,
                1.2238010216764064,
                1.3185286110174808,
                0.5641284834469705,
                0.6473768994718401,
                -0.198279300089411,
                1.034778355418915,
                -1.0635651802283186,
                0.16474339630134613,
                1.4128899949621907,
                1.276713011652925,
                -0.6738827784486678,
                0.7590412025763068,
                -0.8529155572083836,
                -1.172448515202587,
                -1.0964659621419302,
                0.7778317583894852,
                1.5022714993122306,
                0.577159170402773,
                2.140163627144316,
                -0.45757618758148894,
                0.577019041531472,
                0.5987692069284147,
                -1.123327597836701,
                -0.5241843698997534,
                0.06195077028520254,
                -0.9160990290877367,
                0.0587341166696478,
                1.8809674620294035,
                0.788822722661115,
                1.661375611551846,
                -0.1471775988761181,
                -1.0010717050995914,
                0.7699359590939855,
                0.8008535068243406,
                0.6145374980799827,
                -0.8040634380045927,
                -0.5084663054769907,
                -0.7605158399458974,
                0.4406067564687896,
                -0.5512123747991845,
                0.7505170552801176,
                0.992716115168231,
                0.6658867379053733,
                0.2548193805148532,
                -1.7085249088849086,
                1.2051023017586548,
                1.3916167221795213,
                -0.31295622876620754,
                -0.5403864229256198,
                -1.8228913536036486,
                0.6567449575742783,
                0.08142724801802244,
                1.4194163484430347,
                -1.385063033426261,
                -0.7597240541833687,
                0.6150540029725601,
                0.3947783238166583,
                1.2914402070777766,
                0.6375357765360409,
                0.06608117722881691,
                -0.16779102412086933,
                -0.8538010963123549,
                -1.1045051142130329,
                0.9468936312999312,
                1.4934229228918843,
                -1.3494130980173475,
                0.10398756459065153,
                2.388902935848631,
                0.007402577793634571,
                1.0464921057110217,
                -0.8497212831845388,
                -0.4231406557355112,
                0.5297835562795831,
                0.3198500475266121,
                1.258119983043409,
                -0.33615872211279135,
                1.38505942657004,
                0.0094802108124661,
                -1.7166492601573755,
                0.698957525713162,
                -0.6460463281115495,
                -0.7530558701671028,
                -3.537137375446456,
                0.33344336458858775,
                0.18633995646485993,
                1.5051896346951334,
                -1.4012675636846579,
                -0.04778943485732577,
                1.2702424072562946,
                -0.7238466425623108,
                0.41714692799798714,
                0.1948520674600568,
                -0.3047713361265009,
                -0.4353691335774457,
                -1.0069035385116878,
                0.7467251704823348,
                -0.34152679432795147,
                -0.6248364145944677,
                -0.3319298803130224,
                0.45289394275186956,
                -1.2095932038166624,
                1.4190503912561652,
                1.1543920915338672,
                -0.5434778670870518,
                -0.5038782645684438,
                -1.5744651875878652,
                -1.2644922531041372,
                -0.05454673973335954,
                0.9251202377272468,
                -0.5039242759515653,
                -0.6575441313097236,
                -0.7432068733852966,
                0.806939945151632,
                1.0358897098872044,
                -1.5123660833329733,
                0.19851627663806076,
                -0.5369438465059719,
                2.377507746915411,
                -1.161667715248358,
                -0.9164926783041458,
                0.026499336847008562,
                1.0836494511727934,
                0.013703493796993378,
                -0.0883024224298663,
                -1.9225373252730642,
                1.8029503880453346,
                -0.7197086975565457,
                0.4592455732619599,
                -0.3524693381075791,
                -0.2207111968167879,
                0.8964987982939558,
                0.24043443467686607,
                1.170031499561745,
                0.4286456778119694,
                -0.0898376531573657,
                -1.6604610875813761,
                0.9885113268443231,
                -0.7894887339677464,
                -0.8981023222497563,
                -0.6874419075717838,
                -0.08707467431090483,
                -1.438506641793969,
                1.4246824551107313,
                -1.2256642125544936,
                0.4063236606402107,
                -0.20225342519756156,
                0.08754367802890722,
                -0.15499927098970748,
                0.16018418045804134,
                0.5325236764845476,
                -0.9365571084946387,
                0.03973623443372087,
                -0.02696743519000639,
                1.2200414908130663,
                -1.5718832093427872,
                -0.23357486222328763,
                -0.5766386317513855,
                -1.0284053106355384,
                -0.971387557203432,
                0.08727556184795555,
                -0.9998266489502751,
                -0.1592386077321017,
                -1.0643761294745577,
                -0.07407582059700274,
                1.2074485585753885,
                0.6454378174116436,
                0.6473033207434268,
                0.3400148374555071,
                -0.5866186991590174,
                2.4242793363463533,
                -0.284855071623963,
                1.0805755718536534,
                -0.7109582637520898,
                -0.8150007808427603,
                0.9556930722424911,
                -0.9699163401080672,
                -0.7635728848398197,
                1.000529539477737,
                -1.112601628436421,
                0.4329510650669799,
                -0.36972443061311816,
                -1.7426052655753974,
                0.24916926555013594,
                -1.0248609770336772,
                0.5693042876356024,
                -0.6972078448028984,
                -0.4654013012379744,
                -0.5039417165248481,
                -0.21415320168905985,
                -1.4510531659043509,
                -1.233558997657963,
                -0.2761104533189987,
                1.5978902355586926,
                -1.707181550653377,
                0.06285120982121221,
                -0.7797046887454884,
                -1.5482947759817238,
                -0.04722380433283536,
                -1.0639958276965895,
                -2.176731396397954,
                0.6892666662749396,
                -0.30916047685497855,
                0.5189696964341898,
                -0.5254603958767863,
                -0.7198516540793926,
                -0.5618071233382489,
                0.08443476510111839,
                0.06223942124152741,
                0.5743898440890403,
                0.11115889095324437,
                -0.7213443952428171,
                -0.7937513499733486,
                0.9321445747556151,
                -2.13508553583182,
                -0.19744045142418282,
                0.857879468622236,
                0.056359837466154424,
                2.152501339433854,
                -0.13604380008011951,
                -2.1777949469650464,
                -0.472569224695551,
                -0.17981623929604296,
                -1.391756259707418,
                1.7506375563884673,
                -0.6323819939561542,
                -1.098414502673729,
                -0.4739485838498969,
                0.10860046693887325,
                0.39470982654368036,
                -0.9907695846848842,
                -2.1897771849853065,
                -0.6839797567404228,
                0.07149276897825628,
                -0.2426448243011167,
                -1.0952616868315606,
                0.04471966410719358,
                1.194204568840391,
                -0.35290030522158194,
                -0.16314745576195175,
                0.9021346774476121,
                -0.5566450625616911,
                2.276634170847142,
                0.36674800986402106,
                -0.8402378946099471,
                -0.004817633813167105,
                1.3772344300580224,
                -1.780675120576239,
                1.7708450781360983,
                0.20546700153608266,
                0.2952396317844688,
                0.5971444591124158,
                0.8394196846074724,
                0.7072319991303865,
                0.8308613085463007,
                -0.8561209486656854,
                -0.16154505774015476,
                1.1854218177652331,
                1.2780393220895203,
                0.9159446020230124,
                1.0043271536589635,
                -0.6495620637799026,
                0.8128285638738122,
                -1.1757748147771634,
                -0.8173323198820759,
                0.8233033196585987,
                1.887087728488637,
                2.57131124672817,
                2.691963805477788,
                1.6896735787213057,
                1.463357457923685,
                0.5749795370052296,
                0.4313393226563542,
                1.1033927980898304,
                2.6013102609370393,
                1.5995509206532954,
                0.7582079755529486,
                1.3700517388859716,
                0.4074642426482901,
                0.7680950946373561,
                1.6675277717834838,
                -0.01606791989951453,
                -1.3318360530329794,
                0.42538737985278396,
                1.57756459173387,
                1.3189852228583987,
                0.3061908148281725,
                0.2558806586814673,
                -0.10303174446176407,
                -0.06337400003256972,
                -0.3512714341730647,
                -0.1180879361886486,
                -0.08184895716090246,
                0.5725237394976964,
                1.3187223089627937,
                1.5409992585402286,
                2.0933403337591163,
                -0.08230384624470238,
                1.2711598935524684,
                -0.4715667891198369,
                1.3912773355717343,
                0.7744256873201362,
                -1.0440061831423237,
                1.538503106869249,
                -0.05829660000091583,
                0.1116326394227836,
                3.084330301883782,
                -0.4561838314915216,
                -1.0462609234975608,
                -0.8425036623937137,
                -0.7652981151063285,
                -0.02476362707664758,
                2.1734033510825213,
                0.3531030568445316,
                0.15635247586459758,
                0.40639647512095073,
                -0.5858163868498536,
                0.4589434410706648,
                1.1525991765024937,
                -0.6125243136133957,
                -1.3411960991552252,
                0.9410627139744764,
                1.0401070764321427,
                1.1536653615374903,
                0.026219212553092647,
                0.987403614325161,
                -0.7513727294431191,
                1.8076341835055,
                0.16971728853635068,
                -0.49666958832832236,
                -0.7920749319062693,
                -0.656660569327847,
                0.5181823218467386,
                -0.025573632850999867,
                -0.3711844599545238,
                -1.5565309293476997,
                0.7646873533054238,
                0.5079025208864171,
                0.6370918988453469,
                1.5202142489302524,
                1.2918209825679896,
                0.9006933053586781,
                0.9806996595124259,
                -0.8063679875095525,
                0.5300164322367092,
                -0.34621613689155034,
                -0.3532927598136218,
                -1.8543545202513811,
                -0.5516728137167447,
                1.8990539265086006,
                0.5846830127495322,
                0.7695607278953387,
                0.0930427011397466,
                1.3460529268226875,
                -0.7715135552860661,
                -2.2872814919236246,
                -2.1669865624014517,
                -0.2291186338148374,
                -2.211901503845865,
                -0.5493233424902038,
                0.04621687984347649,
                -1.5323598085280685,
                -0.16884613881786312,
                -0.23598684871654846,
                0.14765502025486052,
                -0.3138899110464362,
                0.49995688337109584,
                1.6330404897777855,
                0.577292650558669,
                -3.881157866572957,
                -0.09796739666596234,
                0.9345385771685738,
                -0.5763510830419443,
                -0.7114096892319297,
                0.1268480664779103,
                -0.6284778590892377,
                -0.7612823154139651,
                -1.3865065241611672,
                0.20701646932889464,
                -1.017322095114531,
                -2.5319883207270455,
                -0.03980877853095496,
                0.3686371267906676,
                0.17824932755547754,
                0.21186135404669162,
                -0.3426969739018273,
                -0.5941525475454925,
                -0.7502990506470408,
                -0.26273449926690934,
                1.4892363642145876,
                1.2890286768497747,
                1.0735416104049902,
                0.5843692417270647,
                -1.5210386416905939,
                0.16138560019498083,
                0.9314127783261091,
                1.5354143477280413,
                -0.21261774724407403,
                -0.5063502365576086,
                1.8439240708109796,
                -0.5951249587670503,
                -1.5258348560904476,
                -1.1636989038481378,
                -1.513891647608563,
                -0.43768587528687575,
                -0.018871998436215554,
                -2.0677352557189477,
                -0.878783779642486,
                -1.7585848050304365,
                -0.24657784202207075,
                1.1317361202021752,
                -0.9457553713354021,
                1.2218360659840874,
                -0.6567380780922775,
                -0.7835157551405931,
                -0.23628643333504135,
                -0.31520565215302876,
                -0.5416329055904219,
                -2.105637271972997,
                -0.09336842747265171,
                0.38175702401919814,
                2.1047067756058735,
                0.41744431019276723,
                0.4322039835049458,
                0.824448985327859,
                -1.270563883451974,
                -2.282232616832004,
                0.998008269318681,
                -1.8490377649527545,
                -1.308383872236696,
                0.48992895491206534,
                -0.6065482095744275,
                -0.22973503647170287,
                -0.6859138139134838,
                -0.5608550913109241,
                -0.5879703169338805,
                0.2392420479609911,
                0.48576917519183566,
                -0.25298731332953134,
                -0.7909204179816333,
                0.8865540186219804,
                0.27125481993623896,
                -0.6825494508040015,
                -0.6807974796534257,
                0.900738512190989,
                0.24350724535222337,
                1.0396289005737585,
                -0.8576372206197849,
                1.7886681984291006,
                0.1587517395271454,
                -1.263466569114008,
                -0.7770961282597126,
                -1.2745427485330767,
                0.21220409402651688,
                -2.2449706724960246,
                -0.5976313514145284,
                1.02197901287829,
                -0.5115595312018072,
                -1.1656936796876671,
                -1.0454107946414666,
                -1.4045105241705322,
                1.235222677622929,
                -1.852217664595994,
                -0.9229239323589599,
                0.1338175152968317,
                -0.09362251822313629,
                -0.1041687210097178,
                -0.7395361044852534,
                0.16974567726372458,
                0.17355100434328333,
                0.0708805699404776,
                -1.1608631531959808,
                -0.9018651688208259,
                0.27622195100447666,
                -0.2789569448175186,
                0.11103503600181379,
                -0.7887743556938235,
                -0.43824295166978194,
                0.5218841432537614,
                0.0826538072715018,
                0.7205246365280754,
                -0.7252546699062409,
                0.7273696582054836,
                1.799482159985266,
                -0.13827292620684611,
                -1.5915228613048398,
                -0.5112118250837892,
                -0.5496824028588113,
                -2.2652542453250115,
                -0.5930313422172196,
                0.383334547324603,
                1.2357810478418638,
                0.08838842594365147,
                0.3593388382300445,
                -1.2682867150316042,
                -0.19053451558632017,
                -0.7466609817056266,
                -0.3349318307502186,
                -1.4042691214484486,
                -2.941669739740039,
                -0.6144952781344827,
                -1.0829051516674602,
                -0.8414409515847481,
                -0.0901553994279254,
                -1.4535525166757357,
                -0.4669264010701791,
                1.7088283221908451,
                0.07884694974765419,
                -0.1387649897462433,
                0.2050559611599937,
                -0.31611845298027996,
                -0.951555264876704,
                -0.42492371133252654,
                -0.6921304168134907,
                -2.0717564059007505,
                -1.4229764066126982,
                -0.14283617340203972,
                -0.02894423646829786,
                0.15466065836784312,
                0.08616412805263243,
                1.1931011822671567,
                -0.13757244600962626,
                0.12387688341454602,
                -1.3835712260683035,
                0.9615479795861835,
                -0.5553243424611646,
                0.7260137327942133,
                -0.18586712157385007,
                -1.2911556801203918,
                0.3295994004392361,
                1.1793686915736759,
                0.26091196012979545,
                -0.9805101922500803,
                0.7727399433554958,
                -1.1493004455908453,
                0.9053465772786817,
                -0.33727450309989254,
                -0.5008670934563091,
                -0.10117332230019109,
                -0.30603677944558666,
                -0.36665547376893287,
                -0.26118721029189795,
                1.121605193830483,
                0.7192156060880915,
                -0.0995884078646474,
                0.1540036690959783,
                1.5851283218566392,
                -1.6853272676043023,
                -0.479902892264861,
                -0.65653347261707,
                0.4686000264894565,
                0.1272666237609813,
                -0.3539317802244825,
                0.497670437748126,
                -0.5422076229893418,
                -1.3526747301376056,
                -1.7141866930937202,
                -0.15216683564045094,
                0.47823180949598404,
                0.2160763158226501,
                0.46273043529340163,
                -1.314806639040616,
                0.21730446580368448,
                0.670521677911062,
                0.3965022167740745,
                -0.6093503758561767,
                0.5147339808194981,
                0.2293543798473771,
                -1.557846559556849,
                -0.2838466934471626,
                -1.0579912277944503,
                -0.2638481773176175,
                1.6578667046005802,
                -0.3891998723242514,
                0.5541288995530342,
                0.11009777192585209,
                0.3874147028757595,
                -1.16487459487874,
                -1.1895729860321487,
                0.9371193081586306,
                -1.676370423537805,
                0.4108363671018604,
                -0.8050222737180619,
                1.1856012330712986,
                1.0837578733564077,
                -0.3735058474809597,
                0.7367597087484581,
                1.1204879082805743,
                0.8824847816079303,
                0.744386645232954,
                1.011765778762959,
                0.006031105525270996,
                -0.26060648981534285,
                1.1541804578944086,
                -0.04902344417341288,
                -1.7749026233269152,
                0.061361055928136926,
                0.684630066990013,
                0.036875465582746896,
                -0.15568027109575178,
                -0.16874807238376047,
                0.36022033378159013,
                0.22922748793601488,
                -1.0891220939622994,
                -1.0509884937463323,
                1.5146604977530636,
                -1.8040253149246237,
                -2.4113727527482656,
                -0.655069124547903,
                -0.019742446055705413,
                -1.796043473760335,
                0.8147399863897926,
                1.9345452440523179,
                -0.3688013093010338,
                -1.3175961121071424,
                -1.3148513772346246,
                1.3955041052520076,
                -1.801388427712848,
                -0.5810332373767245,
                1.9764707547904576,
                0.5509811013345918,
                -0.20595539605978477,
                -0.45510926947544816,
                -0.3199091145858247,
                1.0124708742212876,
                0.3332804542427494,
                1.8482030902275248,
                -0.7753034904310963,
                -0.7164366364029547,
                -1.8618590571511473,
                0.8459204130330994,
                -1.826953409833782,
                -0.7069138179673584,
                -0.9508604212481894,
                -0.8492116044640087,
                0.27127913178868046,
                -0.12684440666535238,
                -1.053309594763998,
                -0.7336239614181584,
                0.49835483361227045,
                -0.2225027653610355,
                -0.2429803085039481,
                -0.24573825792619533,
                0.15916995231036252,
                -1.6725765733107738,
                1.4830437857543488,
                -1.3734510560911113,
                -1.3553494294381792,
                -0.3018646304708384,
                0.9047890319072552,
                1.3983257460931757,
                1.6743834569763827,
                1.4416459582333194,
                -2.9565448734067767,
                0.49844071127010453,
                0.8680635991459166,
                0.5529592558135749,
                0.8331012614540878,
                -0.5592949557338379,
                -1.7654655201742826,
                -0.3702034961034515,
                0.4188749756460616,
                -1.1048778610773002,
                -0.956304116611858,
                -0.2101188227092903,
                0.4404247715969343,
                -1.5783649823218404,
                -0.7488060173917866,
                1.2347348258015582,
                -0.6012232041873544,
                -1.4660088826538225,
                -1.0253289907412118,
                1.0338655247495463,
                0.49330255750819596,
                -1.527197379354773,
                1.631041312843073,
                0.4076309982210744,
                -0.22051477583669302,
                0.3268616851778069,
                1.025074423507484,
                2.756657727610022,
                -0.14004135590251016,
                0.8553677316943384,
                -1.1477239919168758,
                0.5492049008193318,
                0.8619854988102672,
                0.8477877415926727,
                -1.369020930547665,
                1.1280727395093644,
                0.3432633968530615,
                -1.2489443888202107,
                -0.44249272728588374,
                -0.4021514634877211,
                0.9589998508645948,
                1.333194431268454,
                0.6556459204496691,
                -0.39028602625259984,
                0.5968274058513247,
                -0.21825831790126562,
                0.23133670722562236,
                1.0998293100478655,
                0.47462772120388036,
                0.5720037667327467,
                -0.7772804914801537,
                -0.862251301187039,
                -0.15888640585250374,
                -0.6988460013824533,
                -1.4076970775666913,
                -0.7762381327439527,
                1.9902743709168704,
                -0.5752428782791337,
                1.3708610166442057,
                -1.15366528450718,
                0.48001762388896074,
                1.4984633852622364,
                0.6159437968317566,
                -0.5214546809042234,
                0.7596911408589814,
                0.6616899450222482,
                0.3068449548400288,
                0.8203853865867886,
                -1.7301207724946672,
                -0.9541160270440847,
                -0.917041933787131,
                -0.7442997472671777,
                2.1969173838715403,
                1.519878973162164,
                -0.0015004978105465398,
                -1.6779691205713945,
                0.7954498885116669,
                0.6632404134280531,
                0.13191249252158224,
                0.23361661717958454,
                0.3374070212098841,
                0.6425018841477501,
                0.09115017142769992,
                1.5250346271726327,
                -0.9090946775505931,
                -0.17585432800133818,
                1.181927517895953,
                -0.19762331101276176,
                0.48582928881354187,
                -0.6061131691872393,
                -1.5128552063820853,
                0.7223673632644038,
                0.8255179934848921,
                1.2947831956958553,
                -0.43400151137025333,
                -0.5918861077669519,
                -0.9158189443438228,
                0.35563625405468896,
                0.8561315099617496,
                -1.4384739369277508,
                -0.182036145454777,
                0.7510767575821108,
                0.06524111422165146,
                -1.0592687456172634,
                -0.18518661836637731,
                0.3341388970853721,
                0.07991325015115437,
                2.419893373702375,
                0.07861332144178997,
                1.0947896439569937,
                -1.3430001651142487,
                -0.32143191480686534,
                -0.49149911506304755,
                -0.5796282679898779,
                -1.033700132019221,
                0.21039273297505912,
                0.5062486037275021,
                0.15976952798332536,
                1.1832548449104618,
                -2.0337414296730536,
                -0.643028386275514,
                -0.665553649081429,
                0.8834523531465516,
                0.3535980311577633,
                -0.8306793926654138,
                0.15752952531912776,
                0.215289368104678,
                0.030022002695990996,
                -1.3512319752036908,
                -0.815818331625211,
                0.2785854019207588
            ],
            [
                -0.6087967149055449,
                -0.28751480998183426,
                0.7829498276109063,
                0.3153110925284555,
                -0.08728264444469923,
                -0.036768026957871874,
                -0.1647085383735908,
                0.8813591247787705,
                -0.3220873715894041,
                1.5800886136831855,
                0.5387447059185115,
                1.4370444144103913,
                -0.15714387850541425,
                -0.8217545563704611,
                1.603469326728316,
                1.1411285815469145,
                0.5450624215023766,
                -0.48242055793109073,
                -0.5376683277251149,
                -1.9360920595006519,
                -1.2453675603137486,
                1.597719087319943,
                -0.5907341549016992,
                0.8270705453828464,
                0.13368085225935558,
                0.334992579613258,
                -1.143541549352656,
                -0.8677338950526496,
                -0.9331808648127237,
                -2.9486651815014673,
                0.4587567940185681,
                -0.35175056650217634,
                0.624042359889113,
                0.35256163385934264,
                0.6617416959479854,
                -0.8075957771319415,
                0.6355677724686978,
                -0.045981886203468485,
                -0.7053063216054152,
                -0.1597249015071728,
                -0.4302304596858953,
                1.0749304267672513,
                1.2408100739050962,
                -1.2455094030331268,
                -0.6075035943332944,
                1.0796842749910913,
                -1.4145043361082892,
                -0.27387244516176956,
                1.0729974175614312,
                0.1425081481891649,
                0.3388908281822301,
                -1.5448503604264818,
                -0.3480637981175945,
                0.4416698442729351,
                -2.387482927354985,
                0.17012035179868543,
                -0.38896548339386355,
                -0.1126382587442668,
                0.3723783742696527,
                0.08742782856754566,
                0.26748300788405927,
                -0.5198783040418787,
                0.06260342115609208,
                3.272753648503687,
                -1.1099174183248874,
                1.5331377813275975,
                -0.10922934541974523,
                0.17183916637550734,
                -0.23425264873885546,
                1.2642443679940238,
                0.9286409072620464,
                0.9460313728143368,
                -2.0219769083816663,
                0.13201531284003862,
                -0.3226689032145937,
                0.6621597253004421,
                0.2775948319623775,
                1.1897137879335513,
                0.5149576998157956,
                0.09987563976843665,
                -0.23592787500219375,
                -0.7766675994709694,
                -0.7495042288802013,
                0.5741962059437622,
                1.6774376057708762,
                -0.7832579575323706,
                0.756724208743197,
                -0.1111592540648098,
                -0.8525299491479703,
                0.4012067699710767,
                -0.578344852368389,
                1.017508342360231,
                0.9924605017007759,
                -0.15784774983094307,
                0.9207756563159364,
                0.41501050785125626,
                -0.042360270056519024,
                0.818476567475042,
                0.01356403010569452,
                1.190289947833589,
                0.11065772980635882,
                1.727247213291202,
                0.39455910665451766,
                0.7762609485424957,
                -0.956371769686506,
                -0.7377400871120897,
                0.4161098736092437,
                -0.8305439340605596,
                0.48820044714563954,
                -0.6406599266836475,
                0.8366442076897267,
                0.5267639871854567,
                0.06910940733586203,
                -0.028010306331466464,
                -0.13717018148778312,
                -1.303231599229988,
                0.2756492156417285,
                0.08337321763171737,
                2.141144918519444,
                0.970523400238279,
                -0.7454398433013217,
                -0.6791142486066069,
                1.0630184380496646,
                0.21710183966373942,
                1.4366908965586724,
                0.09235156160514325,
                0.6582172625628187,
                0.7411014241907586,
                -1.09269658555392,
                0.3489602475839101,
                1.032422686696253,
                1.1043565430802462,
                -1.1293500600950204,
                0.8555737105839553,
                -0.7753217007152163,
                -1.115172758051822,
                0.5038117357952195,
                0.4850238502812954,
                -0.49076902405377054,
                0.38115247225177035,
                0.9332330943568365,
                0.12356745980365269,
                0.19197141513744187,
                0.2759561330623611,
                -0.26575950777907237,
                0.605470720577011,
                -0.9342138185823338,
                0.6488210130880333,
                -0.577671490513663,
                1.2143480119634886,
                0.26095748816163017,
                0.6973567485303519,
                0.9456971385368083,
                -0.5683301756752506,
                2.3036493486372955,
                0.14345780875359548,
                2.3207240249123693,
                0.9068723653868366,
                0.7672503611867103,
                -0.35697963231242297,
                1.458615540478212,
                1.62629393069457,
                0.7688315175056496,
                0.1780443301620429,
                0.37525075098490546,
                0.5026751214604023,
                1.9276723671380271,
                1.3259044538368803,
                0.04922018226872069,
                -0.7493131965473105,
                1.6486290306983697,
                -0.8787119451215186,
                0.5996177196241372,
                0.1799125649340671,
                0.6419623036617611,
                0.5106367286294378,
                0.39066360591883637,
                -0.66241100587936,
                0.7274382970441926,
                1.2249193699071494,
                0.9646068549160277,
                2.131398080585522,
                0.7749995841058903,
                1.7718789308817378,
                -1.1602372441846218,
                0.3004140701890844,
                -0.24530350855998023,
                -0.6339538832075372,
                -0.656147130467002,
                -0.6488090212455331,
                0.18355233011399488,
                -0.017288715298569936,
                0.663615221926689,
                -1.7650101647878176,
                -0.26501446565917797,
                -1.031607162540082,
                -0.18771209371686137,
                0.292488835449572,
                0.8443221136514949,
                -0.5550456941230184,
                -0.12382157914282622,
                -0.7236753594848638,
                -0.5443995305016879,
                -1.4461099829422657,
                -0.291556925839372,
                -0.896607286929907,
                -3.05038990307814,
                0.0077032355228842655,
                0.6939367879241601,
                -0.5292300040754524,
                -0.8697834732034375,
                -0.9005884005651603,
                0.10278744175252183,
                0.31677445750889993,
                -0.9471971620655992,
                -0.9779758893974009,
                -1.1656430592165499,
                -0.9429003532798121,
                -0.5704374419248498,
                0.6376594611609271,
                1.3833491450319375,
                -0.538302853304505,
                -0.5742370347174551,
                0.3731704976225988,
                -0.10729376908079626,
                -0.39658744572054905,
                -2.335431365924221,
                0.5695281051169737,
                0.255051205176054,
                0.5675155386481976,
                -0.6147122314930744,
                -0.1150305181568724,
                -1.386576461127732,
                0.32048385906263593,
                -1.417679410465335,
                0.564582679143984,
                -0.09077365361513903,
                -0.9077724926940793,
                0.15878557822382006,
                0.9468122266251744,
                -0.3840263990340453,
                0.47880932995620856,
                0.16347862414697092,
                1.0000346284387864,
                0.4179379819786432,
                -1.7643014366038907,
                -0.5981937521854205,
                -2.6446311185710174,
                -1.2087993456932153,
                0.3844719660554737,
                -0.11508656985635753,
                -0.4466103857843754,
                0.13953154761242292,
                0.29827002679474035,
                0.028885338184603856,
                0.9836272613607978,
                -1.835612301023692,
                -0.19259559720046895,
                -1.2237544888590717,
                0.7052660755647554,
                -1.9793520680530954,
                -1.950922734833968,
                -1.7925616716170698,
                -0.806875680911468,
                0.11495878657352494,
                0.2760108073175147,
                -0.15378662490357156,
                0.820286756528183,
                -0.7681281571163758,
                0.609066646128185,
                -0.4836749029463571,
                -0.23094866214968163,
                -0.9686504498497979,
                -1.6106259036962602,
                -0.0715174376806444,
                -1.8109192850756415,
                -1.818532326581666,
                -1.2294686857687394,
                -0.12993439946878935,
                0.6080489378774278,
                -0.21812484798281767,
                0.7513790970023116,
                0.8649601506676451,
                -1.5049481955269164,
                0.7014930424802505,
                1.5227679130940714,
                -1.2610939837660453,
                -0.0772410778940299,
                -1.4806631372944525,
                0.5696614562089649,
                -0.47186036842061707,
                -2.0207407525388614,
                -0.8871459214745423,
                0.47073237309105576,
                2.1221793884585893,
                0.48205176347034373,
                0.7232853361448957,
                -0.8449141363602931,
                -1.0740212838257244,
                -0.4621842939906292,
                -1.0103786673798363,
                -0.10705263475386402,
                1.2039822851766087,
                -0.01867115521141324,
                0.37263575212704575,
                -0.65135013441175,
                0.8247429398181246,
                -0.005353542201086836,
                0.4119649807845472,
                1.3359303970261351,
                -1.1274618287801195,
                -0.16217751665372412,
                1.100063113690462,
                1.2757267244690476,
                -0.22709650678907703,
                -1.0966513531798854,
                -0.7124226662878705,
                0.08873075374646294,
                -2.1739480043749086,
                -0.7962598671387467,
                0.8729801565076368,
                -2.3560231298536096,
                1.6349521782422904,
                1.2701971001652563,
                0.4339936240186139,
                -0.05328769483215571,
                -0.36573056125489345,
                0.18011324015389063,
                0.7911962293526108,
                -0.21310877400010855,
                0.3493816313419813,
                -0.4935303097297525,
                -0.8274940582061482,
                -0.12488636493470869,
                -0.7099308639867422,
                0.2925819290241427,
                -0.6490917696183165,
                0.5532178144392741,
                -1.5746835490786002,
                -0.6795966084884308,
                -0.06402916686482762,
                0.39881247933246394,
                -1.2908733668966101,
                -1.56221710311624,
                -1.9893925520372484,
                -1.7355805311325885,
                0.734754818966933,
                -1.0151974687990573,
                -1.1352585317620028,
                -0.9535746334319171,
                0.1598635262502332,
                -1.8687164190195398,
                -0.33585453676044436,
                -0.9725029393045803,
                -0.6657386423093229,
                0.2886643554570691,
                2.2284483537487283,
                1.333797674667096,
                -0.043265691579990516,
                1.162336222580946,
                -0.01219629346412607,
                0.5259459795212377,
                1.0116335481390764,
                -0.30939519096912843,
                0.14981978038444327,
                -0.6261919317024955,
                -0.18411176526315007,
                -1.4447946326551395,
                0.5247688063218737,
                0.45922490589037995,
                0.5902354548448657,
                -0.9243329290555242,
                -0.19514226119624192,
                -0.1851255387813848,
                -0.6873370024589024,
                -1.1651155513446982,
                -0.9650722258313639,
                -0.04990223378671623,
                1.3353041793290263,
                0.029286098488294613,
                -1.2746783944536593,
                -1.9485655575999394,
                0.0636054024746329,
                -1.3785515257495686,
                -0.5423147156287412,
                -0.8447534602644347,
                1.7945546115971032,
                0.09010419124156711,
                0.463345965480845,
                -0.46186747238395837,
                -0.7463247293307144,
                1.6649970578854483,
                -1.1789369282192736,
                -0.30444740065575193,
                -0.14177277719739223,
                -0.0544831977202313,
                1.456585854737893,
                0.6106751851131053,
                -0.651264349098125,
                1.1031806633702523,
                -0.6600398228904438,
                -0.24588096780723895,
                0.14830966399236892,
                -1.053330400174752,
                2.0128883117520338,
                0.5749026636233232,
                0.2553218722811691,
                -0.7011226641596889,
                1.720382584181661,
                0.0027640143472427306,
                0.5225885021245752,
                -0.37914241017916595,
                0.5680063971747329,
                -0.10093460961464049,
                -0.10374465774482612,
                0.7190368147589745,
                0.4734772304216587,
                0.6457419172923262,
                0.9138300337776053,
                0.587621315514882,
                -0.47752113906097315,
                0.22291343460631316,
                -0.3561983162740973,
                0.36619016440573693,
                0.7517621181038919,
                -1.2139862102512489,
                -1.0780107969627641,
                -0.20706587184140549,
                -0.7085593038070783,
                0.5906902055242349,
                1.4367720953169936,
                1.229393878685341,
                -2.7535040664694397,
                0.03695983099090421,
                0.6305266491043938,
                -0.7521731321629024,
                -2.3090463958474334,
                -1.6178612530205603,
                0.06337054122581667,
                -2.212913936685254,
                -1.0711147339770566,
                0.5081213049378326,
                1.4466179359323572,
                1.2342805595384936,
                1.1176184268319729,
                1.2215257063962313,
                -0.6510993443901836,
                -1.0687127365911597,
                1.3886572527805794,
                -0.8311264944011596,
                -0.7519190997805737,
                -0.28189327075108533,
                0.5724223618574623,
                -0.8932249873940664,
                0.7883194672290957,
                0.34685292445457655,
                0.23878553818634563,
                1.7815336904822552,
                -0.4527370461823237,
                -0.2911146371472975,
                -0.4514342364616249,
                -0.2473492131869332,
                0.3280728137261478,
                -0.6103529862847308,
                -0.9728737156480015,
                -1.2638589245479601,
                0.5695278380558391,
                -0.350131740037235,
                0.8547572607714127,
                -1.4552825717272142,
                2.2390984257955417,
                1.101100652149955,
                0.25841128063727015,
                1.1483785540032958,
                0.9637187086653947,
                0.8783710948084339,
                1.8733598296807752,
                0.747865371000101,
                0.7206345614562355,
                1.2282411488951623,
                -0.858966764147354,
                1.0120777423603415,
                1.4023810896958597,
                1.1717408009694306,
                -0.07511561773327038,
                -1.3799752838843995,
                -0.7619138023486022,
                -2.3704821568420282,
                -0.5509666668467617,
                -0.6317494526711367,
                -1.0362339851948017,
                -0.08824361930483217,
                -0.060984153853667275,
                -0.4268098627573608,
                -0.15301770183297442,
                2.375253350009767,
                1.1679017867973316,
                0.5151548433640935,
                -1.8182260146721119,
                0.27452457162790067,
                0.7429722139410616,
                0.5230977122962537,
                -1.341429657633212,
                -1.081811519350751,
                -0.309143804965658,
                0.05647627893716109,
                2.140321450361401,
                1.4308302598717035,
                0.6650768199150872,
                0.6466118014759336,
                1.4055711004652824,
                1.7528034682942921,
                0.6699970937462552,
                1.3208790200607403,
                -1.0165865409905237,
                0.4700339161746025,
                1.5669949214294687,
                -0.06487315906693021,
                -0.21159089637393189,
                -0.06804888436744957,
                -1.2628358055506137,
                0.6640351460354985,
                0.4681307679866668,
                -0.9618458808349386,
                0.2992868127697194,
                1.1755449493127994,
                -0.18923673469478358,
                0.4931922505003299,
                -0.7414937240249211,
                0.06305082528573674,
                1.912306480605641,
                -0.640975687954278,
                0.31745978048448614,
                0.2818995268325315,
                -0.9944205566417049,
                0.44977902332833963,
                0.7427896203374669,
                0.49824204710899694,
                0.02910423104462122,
                1.2150881665179214,
                2.4577381407071184,
                2.9568804758227234,
                0.9315032235293366,
                2.4200335355295386,
                1.9458467480727537,
                0.7397349089002814,
                0.7231599896158835,
                0.7876768900787225,
                1.0457295713384807,
                1.835239971591342,
                1.9482352542559334,
                1.1315469882138278,
                -0.5773350958069564,
                1.2634835894245953,
                1.5379747021482428,
                0.9428414210347943,
                -0.1563325931762272,
                -0.8016920125880497,
                0.4616211922122396,
                0.1677286320484472,
                -1.319418867609861,
                0.05804561503922559,
                0.02777967653461099,
                -0.2875917886554492,
                -0.8604762194266045,
                0.25407516057627333,
                0.7296346710154704,
                2.1075486554259877,
                0.6554978207628748,
                2.763033790431409,
                0.3955665488806423,
                2.4275164734631365,
                0.9622355880494645,
                1.272886986760465,
                2.047180168153508,
                1.6909492077655375,
                0.18007942655300208,
                0.3464881766082917,
                0.38648982012903543,
                2.2039752930857275,
                1.4267797057387304,
                -0.06115425012596548,
                -0.664813320199429,
                -1.5196725285057993,
                -0.3454247076791046,
                -0.17002093424456796,
                -0.8561347449803891,
                0.6865489152456378,
                0.17046589439040316,
                1.1587879387000635,
                -2.070270623971721,
                3.4809398650930983,
                -0.05091879290579662,
                0.7348735997224153,
                2.6937365712932846,
                0.167516901069752,
                0.03721476933147958,
                -0.36129201824335944,
                1.0872393399700506,
                0.5905541194005406,
                0.48879864719888555,
                1.4974967604703027,
                0.15248361437140753,
                2.236511306571878,
                1.0209085790398822,
                0.10069102768949222,
                -0.7624077590160183,
                -0.08319598057352634,
                0.021440360900638267,
                -1.3791978589491785,
                0.47262696218645417,
                0.4090275696811282,
                -1.1351126479245592,
                2.1239336066886647,
                1.0143799277599101,
                -1.1916847583500936,
                0.12702349056412024,
                -1.1493299545099733,
                0.3567070814674466,
                0.8546108611887903,
                0.2825989533104451,
                1.3935583058916863,
                -0.05460199027835935,
                0.4651013979092655,
                -0.3852304139709322,
                0.9217721765810633,
                -1.1168325556495549,
                -0.22820136245212178,
                -0.30178430107410315,
                0.3999521693855602,
                -2.043576175759374,
                -1.1351377230137727,
                0.9878076826885368,
                1.6989447637212773,
                0.21715680571044288,
                -0.642188249921542,
                -0.39666157058826546,
                1.8186769379642413,
                -0.8389862092726608,
                -0.4110690516048361,
                -0.7021870963717852,
                -1.2154540185744331,
                -0.16114630900652724,
                -0.47826829820204386,
                -0.4583078026296428,
                0.16491026587830399,
                0.6525867614636667,
                0.2084013509164768,
                0.13292530659968196,
                -0.6621734420240399,
                2.4180423624227227,
                0.8048074574932828,
                -0.08542729855407004,
                0.28091287910722756,
                -0.4132176480167806,
                0.767852633712413,
                -0.564751937498193,
                -0.8934355422875245,
                0.4295911851775089,
                0.654565506365402,
                0.1799666898394822,
                -0.2927607406838015,
                -2.2961623044480786,
                -0.3697483290494737,
                -2.108947717538491,
                -1.1109774382972075,
                -0.5909986385070883,
                -0.05552968093137907,
                -1.699703243853321,
                -0.46775839287562904,
                1.47863948368352,
                -0.30419697256539513,
                0.2938482512125521,
                0.848784080598115,
                -0.9897140022815861,
                1.9978905756724485,
                -0.6350581549569563,
                -0.6367293060265873,
                -1.0164989830902047,
                0.7559045478659344,
                -0.6362884409084916,
                -0.4242705691279595,
                -0.3906252846479684,
                -1.9037856888090863,
                -0.685097325479597,
                1.770859040600328,
                -1.9669624303579087,
                0.4982966526454859,
                -0.0185855497481279,
                -0.18246544943122506,
                -0.3912494002322711,
                -0.530350654201912,
                1.1939622493156374,
                0.7779084850917038,
                -0.3390890408702903,
                -0.26940689905729315,
                -0.4762362530068535,
                -0.06645723314649112,
                0.13744901809235896,
                -1.2795537956418095,
                0.887014349207731,
                -0.17778935239501875,
                -0.5213355066719684,
                -0.8169727576448405,
                0.03778536557903454,
                0.5021325358519677,
                0.5128476913266962,
                0.41331085405673973,
                -2.4309458779370043,
                0.06328480054008367,
                1.726417873744883,
                -1.4278900464729103,
                -0.9597692168680272,
                -0.06320974843077498,
                -0.7723360884931514,
                -0.6641966012233015,
                -0.7954131783048242,
                -0.4071002316808779,
                -1.5747224432289406,
                -0.11662189522166487,
                -0.6883762499016669,
                -0.04433522686367065,
                -0.0968506915306135,
                -0.14938001579150284,
                -0.5609601176356996,
                -0.9262511622903888,
                0.428561174216634,
                -0.15385513835583545,
                0.26986602941027327,
                0.670387983528671,
                1.7210827998943208,
                0.4144161511110762,
                0.47786276940074807,
                0.5911457210277702,
                1.5913960410482515,
                0.27540714458111887,
                0.6909302343530717,
                0.13756139209732654,
                0.5946544023177149,
                0.7586845894615517,
                -1.2539641566156912,
                -0.9642666942155738,
                -0.9491667709263887,
                -1.2869844967972603,
                -0.6462323647788648,
                -0.43876802697446143,
                1.1539326372906187,
                -0.8787889670373098,
                -0.5898205727089367,
                -0.014397293887264665,
                -0.993027792652665,
                -0.8425291767208483,
                0.696553458497475,
                0.6373721464993521,
                1.4078337304114157,
                -0.4958841178368971,
                1.12801883617565,
                -0.0177502567637201,
                0.7620408006576989,
                1.7661768772962942,
                -0.8383459722534364,
                1.3627626218082578,
                0.015119087943197518,
                0.3480144129263607,
                -0.405416461218921,
                0.4941723214997769,
                0.7236305896329606,
                1.331519022931238,
                0.03786554107895297,
                0.5692760394551478,
                0.9017385768826783,
                0.15805302878715793,
                -1.6397084922620495,
                -0.15414102900433732,
                -1.6114059724019902,
                -2.2239670594485292,
                0.84642381316431,
                -0.6609603189774498,
                0.2681599363595872,
                1.9626101757598255,
                0.28169973004967636,
                -0.5753316946431514,
                -0.46156426396464806,
                -0.594236357071287
            ],
            [
                0.1256100580903893,
                0.5358055060393244,
                -0.7377530990526895,
                -0.7703292977399521,
                0.5331343503159474,
                -1.1005821062795198,
                -1.450188549738252,
                -0.42493298714200384,
                -1.6268487449909974,
                -0.527862411585058,
                0.7262502948104027,
                -2.027863797480428,
                0.38440502093742074,
                1.4740115249400114,
                -0.2701759251257435,
                -0.1622238244564874,
                0.2345467437829364,
                1.6000318892136898,
                -0.09430821690895809,
                -0.777716339061775,
                -1.5548357848648855,
                0.36365830170670965,
                -1.0858172134681583,
                -1.216400414467967,
                0.07045477273102453,
                -0.9057144047900421,
                0.20699453156244585,
                -0.04202650896223771,
                1.375856566439748,
                0.791762208347364,
                -1.5277793016488823,
                0.9253926552969429,
                1.0611183848795152,
                -0.2605890233541826,
                -0.9767577662725965,
                2.5997894310664957,
                -0.9809393556020337,
                -0.6780903839349708,
                -2.8114128949353887,
                -0.6959720520639826,
                -0.5980500182236712,
                2.0402597105643054,
                -1.0846601721338793,
                1.1049985827685305,
                1.363927588493861,
                -1.2683925785431693,
                1.207404729030997,
                -1.9382868605211563,
                -1.6122127185519606,
                1.3807325136847022,
                0.3390003014169135,
                1.4433868464002562,
                0.2868417732063572,
                -0.6423941103773789,
                -0.2387055728894835,
                0.6156143399347916,
                -0.0754722833278753,
                -0.4079149235346859,
                -0.432605752359108,
                -1.9610836605054562,
                1.1513878846655035,
                -0.6440619554260235,
                -0.4185403448246447,
                -0.8009322262798962,
                1.15198649181471,
                -0.9478684149071327,
                0.9776938560735934,
                -1.0550176915844036,
                -0.8384757399069868,
                0.44460687532623094,
                0.46583365999363047,
                0.23996374111438842,
                -0.4501682658003236,
                -2.214619197016932,
                1.1305748236303748,
                -0.12519059466842586,
                -0.1750954103513757,
                0.5478199333893219,
                -1.7808433948357225,
                1.272581207062528,
                -0.0720469286269274,
                0.4269401747965205,
                0.8785782732478037,
                1.8480452956643703,
                1.0343740099061698,
                0.7980481733818394,
                -1.6852690208708416,
                -0.061252541899100926,
                1.0997134495866865,
                1.1389128832803705,
                1.6494806036719833,
                -2.3401310732390046,
                -0.14724268526975365,
                0.5672319964714098,
                -0.1135865675558101,
                -0.5467764224059588,
                -0.9057642482829983,
                2.03712951882099,
                1.1981012119935903,
                0.9580869521317615,
                1.2517968604706633,
                1.4617228838924983,
                1.5686554842139628,
                -0.8106840858582453,
                1.4659844296083853,
                0.007060150336738774,
                -0.7741230632131706,
                1.555093418874155,
                0.3277954238857646,
                0.7202892289305634,
                0.3447111801620273,
                -0.1345631333318541,
                1.0292265932713036,
                0.9799963469774025,
                -0.41097595287834277,
                0.5531098781890043,
                -0.3903036635104671,
                1.3437947423340264,
                0.4703403707396358,
                0.2024464562939833,
                1.577309707871197,
                -1.2206436467908028,
                0.7275288386785178,
                -0.7513460932181045,
                0.63690662079125,
                1.2549348373523765,
                -0.9269458286709267,
                0.12635292215760174,
                -0.5836887652765828,
                0.6216942351159306,
                -0.16606371303060044,
                0.37967190834055237,
                -1.0581626166099858,
                2.069309305912677,
                1.0834984407917057,
                -1.3099463968476506,
                -0.5784662960428364,
                -2.770906722847476,
                -1.5409657918777306,
                0.8921268126550647,
                -0.8456393631153143,
                -0.05259393492120322,
                0.36716495207098293,
                1.333522211629033,
                -0.15678500292414557,
                -0.019563524205922698,
                0.8307281371857599,
                -0.3903196198809529,
                0.39540769980088253,
                -2.441356928446699,
                -0.13423926444553008,
                -0.14656769543342565,
                0.2247629827407771,
                0.7674328560706438,
                0.19411811302161433,
                -0.6452303024909317,
                -0.11630387506291534,
                1.273673168023516,
                -0.2896938349690762,
                -0.9525828283772294,
                -0.7818702436308562,
                0.5042095528252423,
                -1.5767324561000367,
                -0.3125642473821857,
                1.3553065794489536,
                -0.35769239150196175,
                -0.5198650525886629,
                0.6676593101687881,
                1.1853807657987663,
                -0.07709863178590487,
                -0.8700667883556583,
                -0.10641750889409748,
                1.7517341044744017,
                -0.28178951925998297,
                0.11666450582573525,
                0.21377575606719443,
                -0.7022719761414546,
                -0.9731851858934254,
                -1.5572389341159902,
                -0.1685348095062854,
                -0.9756043292927133,
                -1.9749820754969942,
                0.43219252460434393,
                -0.953824469622573,
                -2.6430604369515267,
                0.6338073011935269,
                -2.041589631362427,
                -0.05733844070457942,
                -0.2990451332153526,
                0.047914010020511474,
                1.037966065044453,
                -0.5249105703279847,
                1.3274920662680838,
                0.8610633876745158,
                -0.9414035264001809,
                -0.6535794837691261,
                1.1833150618927544,
                0.6571983793149851,
                0.1738525545396601,
                -0.10714722700519333,
                -0.012363035127302335,
                -0.8533593119284785,
                0.9314929035013199,
                -0.10775048675069175,
                -1.380887946224991,
                1.040875038680199,
                0.27648334861448975,
                -1.2100346291408859,
                -0.6800358012681978,
                -0.9860159985216533,
                -1.0399377057860533,
                -0.9022160771628662,
                -0.9196806387316366,
                -3.190331072341213,
                1.587218427000622,
                0.5722652420500525,
                1.306140071394153,
                1.4481692911879518,
                1.5532081525018109,
                0.5498528207936989,
                -0.21080487048454497,
                0.0027147090678097652,
                1.4542115828455395,
                0.04012874911984482,
                -0.00748139462333557,
                -0.47988325852838704,
                1.281104117939415,
                1.8026874631232912,
                1.8152761759432217,
                2.955860887033323,
                0.39881185385616164,
                0.0020621319985048947,
                1.1029732919688708,
                1.2511352430960077,
                -1.3976187430208051,
                -1.7362272634634677,
                -0.30846912276419436,
                -0.08111177358526224,
                0.5601346062768073,
                -1.3717491860071713,
                0.7124822409548631,
                -0.12686884759561656,
                0.05150106771004435,
                -1.598240160496457,
                0.07024301546883224,
                -0.15542174042341902,
                0.5819264364705267,
                -0.5077603739412653,
                1.1903771354366721,
                -0.42682748094007056,
                1.8756361380870714,
                -0.07447408443011637,
                -1.1811283790460623,
                0.2062850521681915,
                -1.0648644159776341,
                -0.6608608671180648,
                -0.6531952320097624,
                0.2700952963423538,
                -0.1421422753669205,
                1.7970558828856773,
                0.21957751504874565,
                -0.34665173527440435,
                0.18258081007253749,
                -0.5356174454267437,
                0.5641029801695184,
                1.1136227396986456,
                0.659397744602196,
                1.2661931028497524,
                -0.5344461092556068,
                0.8256825874647731,
                0.43766815639485834,
                1.9691580674640397,
                0.3797180387897766,
                0.861825069835615,
                -1.703040665881513,
                0.2295289056001603,
                0.7438598058768031,
                0.08910621677995262,
                -0.7765625062189748,
                -0.37636417365965935,
                -1.0227127331843182,
                0.3800988302906098,
                -0.3730963874139185,
                0.32487735353165387,
                -0.5989609917230055,
                0.7555031706593529,
                1.0556758619087419,
                -0.26203882177742477,
                0.43077291919008764,
                1.1751128591694195,
                0.34687108508816444,
                0.8551996559765987,
                0.6643618266599695,
                0.8079560771912067,
                1.0603964483446149,
                0.9971399116108447,
                -0.10108855806922014,
                0.10755199706954945,
                0.16608513377069817,
                0.6485682501426719,
                -1.3179868059583697,
                1.5275618269785425,
                -1.07320400826613,
                -1.343279528297426,
                0.4904979311567079,
                -0.48256414444928436,
                -0.16682063253523904,
                0.7019019640670944,
                -0.4796780537677229,
                1.3841176756051174,
                0.5095606264908643,
                -1.6768854209809632,
                0.06991447317025488,
                0.8486456653157948,
                1.3869934569787798,
                1.1279821058624102,
                0.4190521377931628,
                0.0059723911871941765,
                0.9257734962976688,
                0.3237551194316029,
                -0.79000826922304,
                0.6892986680734003,
                -0.3522341258688789,
                -0.858209665255722,
                0.030563786549430882,
                0.9981170167606,
                1.5605895949975062,
                -1.425688487581807,
                -0.1190905622932729,
                -0.29594756281310264,
                -0.5614734410820204,
                -1.6184672130239828,
                -0.9032824363319656,
                -1.0115132600170895,
                0.06631544697101201,
                0.757487745438226,
                -1.4072948675524968,
                1.1238595707520935,
                -0.33470433279100886,
                0.2164738374084407,
                -0.09570576307642129,
                0.5843355640111885,
                1.5677241140129379,
                -0.575931247198596,
                -0.1386768014374013,
                1.524442409380972,
                1.8587981032688188,
                -0.2683587036005818,
                1.0666368270193771,
                0.04634177898937105,
                -0.09438732492662673,
                0.19985538891969948,
                -1.5588655131780893,
                0.606177507164966,
                -1.2770608172279105,
                -0.05555552299840965,
                -0.34896823444610947,
                -1.7240933879860991,
                0.21066853995661858,
                0.2222215949450851,
                -1.0586209720629147,
                0.5099590701801744,
                0.8801094126969429,
                -1.4174065821848356,
                0.23056994348048146,
                1.9158476763661496,
                -1.4297214895883301,
                -0.7149358182240609,
                0.36965838837654225,
                0.45161844239618265,
                -0.2489660813214774,
                -0.5829058365445923,
                0.7277889937984517,
                -1.3500901446444706,
                0.06951575466574786,
                0.4818784406908421,
                -1.2290365811913246,
                -1.6301999565458127,
                -0.5196492726948888,
                -0.5049208327626377,
                -0.4548886049279591,
                1.1834286130708502,
                -0.933247134179023,
                -0.7527012711885608,
                1.6857909074306554,
                1.5914499980703933,
                -0.49768625317846293,
                -0.302836231928043,
                1.4133659755135757,
                0.28415250703519634,
                0.6153634207135874,
                0.3017932601665112,
                -0.6615469650833333,
                0.9728843485165268,
                0.27490173778047317,
                0.9267705906168621,
                0.4363498090264082,
                -1.062203280114555,
                -0.3590438831871085,
                -0.4909162507902303,
                -1.513386766912961,
                0.39166191812303947,
                0.4549971020156651,
                -1.0525091580701782,
                -1.821529433671811,
                -1.4368679085684035,
                -1.5559036642032613,
                -0.03672041603217116,
                0.9129140983170968,
                -0.05559451615883012,
                1.5828174615608632,
                -0.8733408442782105,
                0.007657885947102519,
                -0.3678900327359504,
                -1.3784043729475701,
                -1.8371854091608888,
                1.24991413531923,
                0.7686642978721528,
                -0.5313547763438128,
                -0.6517592685018033,
                -0.6404032385994199,
                0.290302521577359,
                1.6070181736284292,
                -0.019998071618940523,
                2.2021405441657964,
                -1.678390297271462,
                -0.6858155333180006,
                -0.49245333024496174,
                -0.7360200737264595,
                0.4580204738995022,
                -0.8920922613144023,
                -1.9480145886000932,
                0.3851789380927987,
                -1.9876000849707796,
                -2.6971566988064146,
                0.16800125933087245,
                -0.6735037838236054,
                -0.9400705319585826,
                -0.23698528605510602,
                -1.0089555846020204,
                0.5576353785800461,
                -1.7523682159646423,
                -0.38062379696859394,
                -0.6225205057768125,
                -0.9536493911588485,
                -0.19362065479544452,
                -0.8598519774618693,
                -1.3417407427326027,
                -1.3883035611627264,
                -0.4988965494435677,
                0.25353091736291056,
                2.2675511253931933,
                0.18192262767935424,
                1.7380303678487026,
                -1.0770042680283538,
                -0.3315843627653425,
                0.6013713965037469,
                -1.8782960280257675,
                0.28088484085724674,
                -0.5030591732549275,
                0.5735702035257033,
                -0.48194921349295206,
                -0.1168604354412562,
                1.150586097422035,
                -1.0766911542896154,
                -0.40269295651528375,
                1.3917485809243992,
                -0.33665392861223675,
                1.195164923633938,
                0.25208477728040385,
                -1.2391807387426939,
                1.8926575073195686,
                -2.315177024070769,
                -0.7280268155485677,
                1.0201916291123578,
                0.489816345851826,
                -0.4605632891936576,
                0.5196870703719514,
                0.0444232699983826,
                1.2072364192705283,
                -0.23010954978583506,
                -1.0903632915587012,
                -1.1969625399213657,
                -0.235548652262431,
                -0.1093556256451245,
                0.02464314070332302,
                -0.8279696537876988,
                -1.605835672165612,
                -1.2113909487803711,
                -0.3204018811072042,
                -1.1536760255068987,
                -0.22902911560866265,
                0.08796727974610939,
                -0.2928170851832301,
                1.3239989879487293,
                -0.12334390818643166,
                -1.4274605790394042,
                0.22335603654186723,
                0.04770880881084654,
                -1.6894345010219112,
                0.5741474040094888,
                1.3494521343756471,
                -0.1742153606586892,
                -0.8022672668953956,
                0.1410396227396782,
                1.0008468887209396,
                -1.4670119110833415,
                -0.14210938468067508,
                0.44955680639854834,
                -0.49328290360035526,
                -0.5362028917716838,
                -0.3732613795017376,
                -0.22171281035485188,
                -1.1161143275903778,
                -0.9823285867240755,
                0.7329332705337226,
                -2.098374421189813,
                0.9302376338028548,
                0.3151033502960668,
                -1.4340442167900151,
                0.7964356568627228,
                -0.511085620265608,
                0.6072154156631941,
                0.5848584287661696,
                0.31308002631005805,
                -0.39549341080773937,
                1.8113500590239044,
                -0.03519537480812768,
                1.2785566951440999,
                0.27999534753048805,
                0.7531003210559171,
                -1.5959773485831734,
                0.9760398450658521,
                0.4461468590945818,
                -0.23803533188939052,
                -1.2845358353516794,
                0.42516467647446415,
                0.4846926246080598,
                1.0795285708973599,
                -0.32418003100568976,
                0.34531051430533805,
                -1.1632519745078869,
                -0.2335899554300066,
                -0.5823853605231971,
                0.4924844720670521,
                1.5706564098548315,
                -0.3162825514189596,
                -1.7992455818000295,
                -0.07701784769420168,
                0.5095963752229962,
                -0.1939074231010263,
                0.16015254644067406,
                0.24730544836264864,
                0.5877216442012538,
                -0.15039337616882265,
                2.1826260334738414,
                -1.2122051502138245,
                -0.20849518190654942,
                -0.38057999425538047,
                -0.8955171016223205,
                -0.055814436492144744,
                1.4286249534201485,
                -1.0857515331775127,
                -2.4483212231322997,
                1.1053368254915006,
                0.8826591850749431,
                0.27406179055863444,
                0.3035074882116634,
                0.8350974742446873,
                1.2780464116706893,
                1.2558674923668613,
                1.1504363556709902,
                -1.5454210499360896,
                -0.9114741610224013,
                0.33240538565147953,
                0.23223032137716396,
                0.5722324119608496,
                -1.4421644692771192,
                0.5147616796110109,
                1.7405231891918718,
                -0.5478450057112816,
                -0.7874833588509011,
                -0.31427429307761184,
                0.01813591704551539,
                0.07651473539554726,
                -1.1442001746599564,
                0.4548135546459572,
                -1.9628015344786163,
                -0.8339321559772657,
                0.4098368203969366,
                -0.05294248924053195,
                -1.2647171001025852,
                0.4856126377003125,
                0.049892164478150695,
                -0.9166053305977613,
                -0.6073865238849092,
                -1.2632976039412502,
                -0.699391390732225,
                -0.7423907909895875,
                -0.24806744472862868,
                0.9141591932863886,
                2.523048852363518,
                -0.1755226703111067,
                0.6930138849679391,
                1.0279103443574462,
                -0.24131413370115273,
                0.26268364084085405,
                0.1482996848612344,
                -0.1438409942436245,
                -0.2669124238516935,
                0.4241384947039215,
                0.22942450993877292,
                -0.6137014727487435,
                -1.4298196033602122,
                0.19368083134241632,
                -0.6223754665275983,
                1.621143813909937,
                0.08046625058554918,
                0.744206771987443,
                -0.709406167732182,
                -0.10205112141898533,
                0.17099469296765607,
                -2.111129163478758,
                -2.05839253875524,
                0.9279086019235078,
                -0.7732410057963616,
                0.46778846126235535,
                0.19673814247869295,
                -0.037920758118591094,
                -0.8087890736035042,
                1.117895607454792,
                -1.8247866647954463,
                -1.9015539687281493,
                0.8814175878057561,
                0.3556117231769751,
                -1.5924686372780554,
                0.5447383033336232,
                0.5275414005178899,
                0.4165551770800451,
                0.964643735780511,
                0.6090674535155499,
                -1.6828620857366579,
                -1.1335267769226174,
                -0.8218298718795206,
                1.229850167424405,
                -0.1955151044174249,
                -1.2816007472865143,
                1.332201704309383,
                -0.5873229967148432,
                0.37535909877564505,
                1.009894230123697,
                -0.4245934603599039,
                0.22212779356761292,
                0.7075769457317566,
                -1.0587286601868466,
                -1.1424615734659536,
                -0.38689612426653563,
                0.4847091491214524,
                0.5699086018368765,
                2.1540572228483184,
                -0.3942030051838017,
                0.958642569282346,
                -0.9289851691581994,
                0.24647985972689646,
                0.6883124924496887,
                0.9844495842561768,
                -0.3629400887478535,
                0.32914855368762047,
                -1.2819264019499133,
                -0.6080146243710436,
                0.6912358656855511,
                0.6637914121204594,
                0.026661351208182506,
                -1.231150696877223,
                -1.5095420776874393,
                -2.320227400049774,
                -1.3306307282291845,
                0.2273387157890956,
                -0.6217691723006827,
                0.6804746746618617,
                0.1676954915918928,
                -1.0854450002932294,
                -0.6555400499769187,
                -0.7749017760442803,
                -0.1389889343542375,
                -0.44437820128848604,
                -0.5508827891224671,
                -0.40208791518474973,
                -0.17288575742080853,
                -0.28659418675417914,
                0.022360875090910837,
                -0.4400856382408261,
                -0.9289912494450838,
                0.5384241521117249,
                0.16526020509590367,
                -0.1865490510576609,
                0.29926858457572786,
                -2.100014365023887,
                -0.7984069734324041,
                -0.25028614733529825,
                0.7494644954873424,
                -0.6652179252378503,
                0.5802668159849261,
                0.41988112481256623,
                0.10331545447721671,
                -0.8107724068649436,
                -0.9974803310166792,
                0.8867431161035607,
                -0.4924613976243371,
                0.9997405957930107,
                -0.9242790425335471,
                0.2816605389653655,
                0.28361648654211263,
                -0.6083392328062812,
                1.0045088234725923,
                1.8634414121129121,
                0.009247887519450104,
                0.44396267149919044,
                -0.8200441401990098,
                0.014713904658553151,
                -0.39120498524023417,
                0.5007914705671027,
                -2.3255232022919032,
                -0.8146130872958379,
                0.7102483166624252,
                1.565487658442218,
                -1.9393513027310534,
                0.8416532007108012,
                0.5585223153923878,
                1.9478341175611045,
                0.4902144777683074,
                0.062859176221082,
                0.11670475092828654,
                -0.4247794202907224,
                -0.6931762320437076,
                0.7955743278821776,
                0.5422311316294808,
                0.56568718102441,
                1.7577525436047892,
                1.3573890516816278,
                -1.801649044423366,
                -0.7073396015964867,
                0.3542379523261246,
                0.8325842107537208,
                1.0819634657749786,
                0.7756794698903791,
                -0.0762170097963113,
                -1.240419866282503,
                -0.4537432653118681,
                0.9990451636914086,
                0.0032189522965876067,
                0.13711236571401345,
                0.7020263032015389,
                0.2973620147765554,
                -0.2565812290644364,
                -0.9299274562295345,
                0.7757597939977258,
                0.34698973843513664,
                -1.143699277237451,
                -0.03943708484009893,
                -0.22237400694149545,
                -0.5796677964402688,
                0.31759263541881083,
                -0.13918455639796468,
                0.5729460905030199,
                -0.024032256493640446,
                -0.04714628102288363,
                1.116618752367267,
                -0.9500364559628695,
                -0.39932162392935494,
                0.019764179060398946,
                -0.34622723298199765,
                0.06091177087653692,
                -1.0805587818323608,
                -0.0011840391486193258,
                -0.06983381715350374,
                0.7972478274599059,
                -0.8375001926760743,
                -0.01704005875106149,
                1.2583566383248903,
                -1.0704960973100717,
                0.013071199110590041,
                0.7242720441059677,
                0.8550308125225684
            ],
            [
                1.2416362916474943,
                0.13109557340681405,
                0.6860096547432624,
                -0.020651539582835207,
                0.11123006808295008,
                -0.29536701320945014,
                -0.8440418286913693,
                0.09583589941297298,
                1.0356079772671096,
                0.100719580290412,
                -0.28004903399960485,
                0.075917299935783,
                1.721583886830975,
                -1.0147133585198667,
                0.17128207137196902,
                -1.0721700223630661,
                -0.6678454880599037,
                -1.3178876143197826,
                -0.6722631788583834,
                1.0741848255351298,
                0.5390845132351231,
                -0.7746223489927029,
                1.4680367693050225,
                0.15433658221069146,
                -1.2982676419517067,
                0.2996986843668762,
                0.3364146100418007,
                -0.7005561649165757,
                -0.30643914535243205,
                0.02931787358566353,
                -0.5162781625757107,
                -0.45807980930242553,
                -0.8307052594826324,
                0.5568904958531409,
                1.2835428491310785,
                -0.6398505148480891,
                0.6237581006974748,
                -1.2179366770926756,
                -0.5540770033000941,
                -0.6974738917342259,
                0.6980619133711221,
                -2.2035420236207637,
                0.20760154943246767,
                0.6858511377156594,
                0.7187761181981451,
                1.180998549045417,
                -0.9470085895790307,
                1.5391911426254414,
                1.9874575711132214,
                2.8105487608198363,
                0.15083561984657223,
                0.34040394027108084,
                2.134332918303745,
                -0.8266924331366909,
                -0.04147004816908291,
                0.4452093453353261,
                0.7904999961197269,
                1.6367687520254375,
                -0.31187573544819625,
                0.6725190646739805,
                0.8012306019101214,
                -1.3147608977987624,
                -2.5378554223147103,
                0.14108123666817757,
                -0.48851402346259903,
                -0.15338809073775206,
                0.13779839301048158,
                -1.2608280415472914,
                -0.24964336831835265,
                -1.2037659849920137,
                1.0043922587492307,
                -0.11813836443348892,
                0.14945110848309157,
                -0.17185762065960764,
                -0.3284264281484197,
                -0.22742384866559293,
                1.0452003683323465,
                -0.12735984898360225,
                0.6656320527378525,
                0.78329249698234,
                -0.916765346581107,
                0.5150444600092396,
                1.8746109892638636,
                -1.505854347814167,
                -0.053302358166506414,
                0.03020328576768407,
                1.37177277549674,
                -0.7237285712426248,
                1.1573811443249307,
                0.4486333987539709,
                0.056506552202976165,
                -0.4495896539309897,
                0.4703041292227924,
                0.7822756737937125,
                -0.6981000555871482,
                2.2667290446788475,
                0.16187209610755995,
                1.756428746172802,
                1.5574683906302837,
                0.5310369537126385,
                1.2720741555467494,
                0.26815824861541215,
                1.1465310822227655,
                0.11700180785708118,
                0.22725645905434053,
                -0.48487485555310744,
                1.2305544889373583,
                0.18999861661522707,
                0.402452023259778,
                1.1657495179563824,
                -0.5544535602559609,
                -0.1411646122113751,
                1.3408744507410113,
                -0.9538891981656166,
                1.2248507368143122,
                -1.444719612316914,
                1.1640081174494554,
                0.6359000364702502,
                1.4564466667907792,
                0.5241163273780136,
                1.2219116298600825,
                0.29730745314871604,
                1.3802507884883923,
                1.0559468130992347,
                1.5067120500056503,
                0.06234466500929995,
                1.1789848502004718,
                0.09089697110981355,
                0.5944773489940203,
                1.692836332335529,
                -1.8598857299684326,
                0.024630835682425356,
                0.71266721321659,
                1.5796694396634128,
                0.44313702368195834,
                -0.7460218812392257,
                -0.29282459113813636,
                0.5683062238996095,
                -0.7886770866995194,
                0.28303580735354444,
                1.386959195932918,
                1.269206566065785,
                -1.023434293674766,
                -0.016762200196327414,
                -0.41642766444818596,
                1.5122830614086766,
                -1.1522061277601112,
                -0.6953505455505485,
                -0.2796857433444129,
                0.1627307819292295,
                1.0796932039990685,
                1.8379413712615889,
                1.357372665470855,
                2.250151079935172,
                -0.431972117607648,
                0.5131928339159739,
                -0.7604025744570881,
                1.0813634947946147,
                0.2631584952763763,
                1.1897216197013525,
                1.3719008715217966,
                0.8259709361525158,
                -1.2036678040206574,
                0.11833383099763672,
                -0.024829679945772263,
                0.46365770256300215,
                -1.7339430117767398,
                -0.8810282326794646,
                -0.8822675747540142,
                -0.3861391349235533,
                -0.5387051937367029,
                0.5880241570518873,
                -0.003970651511962691,
                -0.7438364605776702,
                -0.2111570730047838,
                1.4236615009454403,
                2.038099019456603,
                -1.0785244148366235,
                -0.2954508714255087,
                -0.12425159336999245,
                1.0134637487612075,
                -2.438759394152384,
                -1.8585541536055634,
                1.2982765594168049,
                0.18334305608480092,
                -0.7576232147017397,
                0.3062545046208223,
                -1.1457073007504293,
                0.11945328101012678,
                -1.7063632044714832,
                -1.8573585071127254,
                -0.6541302074982048,
                0.3270770245060453,
                -0.18780164331202542,
                -0.04570407463121514,
                -1.6725625899735475,
                -0.23905897179192567,
                -1.4708201729199541,
                -0.012252060311935957,
                -0.17837839803896657,
                0.05652987573741831,
                0.6068376767822348,
                -1.2550107353689113,
                0.42441511534174153,
                -0.22417540989833246,
                -0.14846432888182448,
                -0.6441314718803903,
                -0.7303839637383814,
                -0.7706000532899704,
                1.0697486430969467,
                1.037311872111727,
                1.5374706635056647,
                1.2965176203697157,
                -0.6083481128551852,
                1.3767843557297497,
                -0.8923642315090249,
                -1.4394941176163727,
                -1.6640534650620336,
                -0.6977107109821319,
                0.6088971414589877,
                -0.6887488618118099,
                -2.039980989092317,
                -0.8136572728585953,
                -0.5493001453688453,
                0.07325721683571974,
                0.20703655598606682,
                1.6641831556898057,
                0.19009282478637068,
                1.856294168493197,
                -0.16970961872037102,
                0.5039384923693168,
                1.420551519590903,
                0.7199175157689431,
                -0.8581164235055138,
                -0.5133820410332465,
                -0.712042355426432,
                -0.30299742553078585,
                -0.2492190194451684,
                1.018437343631481,
                -1.4015743944974166,
                -1.1722786893226564,
                -0.5506685136846594,
                -2.212716117202912,
                -3.616960140782391,
                -0.3583139748069287,
                -0.04812686805939815,
                -0.033324096713980754,
                -1.1663387043817592,
                -1.0834301569251934,
                0.5856800376617374,
                -1.0199652289621197,
                1.6192859305064202,
                0.4192980960279506,
                -0.8800647230669724,
                0.9463020221613762,
                -1.6773774799710999,
                1.085703856921092,
                -0.012124838144734643,
                0.4396560543755851,
                -0.9543613312370693,
                0.16883432288608813,
                1.0231614857286353,
                -0.10526207400821991,
                -0.3002542821778297,
                0.07003830230352144,
                0.6271415499722259,
                0.6527822171501345,
                -0.6950566243715711,
                1.106058645521713,
                -0.1760885327209796,
                -0.9104702059703706,
                0.8047159464149286,
                -0.4576994172649791,
                0.432575747527522,
                -1.1911819763949387,
                -0.992574801560106,
                0.4687880749781491,
                -0.45391818247936594,
                -0.8204456594958234,
                1.4418632032801673,
                0.7451375417861761,
                -0.9631527792950116,
                0.6844548216914643,
                2.5631034956429053,
                2.4223468833410333,
                -0.5285211495320689,
                -1.1360828845187074,
                -0.012569230305608381,
                -1.397763014692008,
                -1.159318804264391,
                -0.3962197428714538,
                -1.2737659220826343,
                -2.192008849576331,
                -0.38261161862970927,
                -0.7987560247170536,
                -2.1956360474954217,
                -0.8392844390390992,
                -0.1515172496115491,
                -0.5942876143912402,
                0.22144718964510482,
                -0.8148359633880707,
                0.4314380643373002,
                -0.3941826560956095,
                -0.3380715287048622,
                -0.2073650775796049,
                -0.090251233808561,
                -1.3746501328253804,
                2.0961888742855193,
                -0.7981251488029932,
                -0.24204387853565149,
                0.3132816854868278,
                0.5153376185424039,
                0.17168584261621372,
                -1.1803612274754283,
                0.4731361551057195,
                -0.668274413455763,
                -1.3339835807218454,
                -0.7066697121847669,
                -0.42249340290862525,
                -2.041909787667161,
                -2.4370485268089803,
                -1.306003837892537,
                -2.167975958250897,
                -1.3611524789100702,
                0.7297887179488608,
                -1.7628490155153045,
                -0.6484480449510144,
                -1.174883994666242,
                0.33152649951429525,
                -1.415764720430367,
                0.42513167628602627,
                -0.01823244013715263,
                0.6084682840880516,
                -2.1891773840779494,
                0.48853589166282635,
                -0.7266232291178772,
                -0.5165996681459957,
                1.1077611516331247,
                1.9269469092354403,
                -0.9346714392595811,
                0.4097235600876947,
                -0.0812458508004472,
                -1.546082931107159,
                -1.3666063117127818,
                -0.08950674017504288,
                -2.706682376811295,
                -3.3928608388472274,
                -1.1137032879448219,
                -2.780391825986435,
                -2.0272373708133227,
                -2.459801889193694,
                -2.1801638009033564,
                -0.8157489364175472,
                -0.9619888440288329,
                -1.36262839489738,
                0.021924605526798528,
                -0.7648623416425634,
                1.0299638252870338,
                0.6927112349136562,
                -0.03225064008374171,
                1.6307326561058966,
                -0.8867835200726235,
                -0.5140296776548791,
                -1.7733937760957057,
                1.2083258252220643,
                -0.07764517716920985,
                -1.115227520731426,
                1.7667415222199652,
                -1.7206066826100936,
                0.05402048504374211,
                -1.6279764620932247,
                0.45455668767359886,
