{
    "layer_sizes": [
        784,
        16,
        16,
        10
    ],
    "weights": [
        [
            [
                -1.0497269419285733,
                1.8604826704979018,
                0.4164985858773034,
                1.756019700309372,
                -0.34281177879784014,
                0.7913399342527573,
                -1.7081892220902235,
                -0.6300386252592926,
                -0.06856114222572146,
                -0.3326533974126927,
                1.1408868486256714,
                0.6493922912833295,
                -0.8603386964429403,
                -0.4238218328978029,
                0.047584802424059484,
                -1.9862664561628685,
                -0.5505300294328395,
                -0.9012952162178004,
                0.6547201145366006,
                0.05236007502527315,
                1.6667522485305166,
                0.5396328876621697,
                -1.3007987879268363,
                -0.5175067715313975,
                -0.9433342858537928,
                -0.608418141539419,
                1.0207947789016816,
                -0.7677887240133053,
                -0.7507386454994451,
                0.7861095881162408,
                0.00655576922649933,
                2.1974974210112186,
                1.3569855089717928,
                0.926649298506051,
                1.737297555341547,
                0.5742619988155687,
                -1.1015608476456762,
                2.0893202143541068,
                -0.08154540687077677,
                0.4907934380939522,
                0.1695423464297399,
                -2.9268655690226764,
                1.5701265238820565,
                1.0533265879864424,
                0.49177766324644506,
                0.2320207112231759,
                -0.5191744987142523,
                -0.3360157581768581,
                -0.566954993921535,
                -0.08064649186121998,
                0.004041038118416266,
                -0.4715519895290683,
                0.9159288306363593,
                -0.5458333358964285,
                -1.0126754149563026,
                -1.7562191475784352,
                -0.5047001137577749,
                -0.8717834403566502,
                -0.17117604238563652,
                0.5293345241413183,
                0.08849596386675258,
                -0.3811047330722319,
                1.2767318006009734,
                0.5826453443140631,
                -0.0007745414400698783,
                0.5672791865640081,
                1.5509074369572007,
                -0.08157550576903547,
                0.4245313091220452,
                -0.26253233374923823,
                -2.244495756136234,
                2.050134742709802,
                0.0003644599037087527,
                1.13165480685667,
                0.14547606723918124,
                -0.4947332702165207,
                1.6405474261921198,
                -0.9635029214889159,
                0.019473851697709574,
                -1.391038613059411,
                -0.3563102940814366,
                -0.47968058935405705,
                0.12778310515095573,
                -1.2639003144988503,
                0.16600986173944657,
                0.039473319139241486,
                -0.6380162946729735,
                -0.6489781185033213,
                0.1899526807887833,
                0.5416764407374367,
                1.7704625802110572,
                1.3502132871537649,
                -0.6531075832175699,
                1.3810238190893243,
                -0.19001747738357236,
                0.0989237846401224,
                -0.20152086324564772,
                2.2339333473700447,
                1.0665590722493674,
                -0.5142941851799785,
                0.27691460659641154,
                1.0884687214886322,
                -1.0038939146257175,
                0.23770327217199202,
                -0.33257062350071914,
                -1.5134694277429002,
                -0.7228840974528479,
                0.6931701852383212,
                -1.5171871136374473,
                -0.5054865350332371,
                -0.8064260544589187,
                -0.9295390222549036,
                -0.02532477920697527,
                -0.33486965843072397,
                -1.1791016010281994,
                0.232567992578804,
                0.7253921246716737,
                0.39599639537557424,
                -1.3378220077339802,
                -0.06767574161496404,
                1.3826486577823374,
                -1.0985835140775746,
                -0.14244732740845306,
                0.6997591380260134,
                -1.2173727261595915,
                -0.04757351753252855,
                -1.8519233840210088,
                -1.5634122323922486,
                -1.2972835531762381,
                -0.05795910763505682,
                0.3764557555958265,
                1.6017906321585231,
                0.18394543884213838,
                1.2795297875919207,
                0.3022322843472684,
                0.8014497222023232,
                0.09659841934335948,
                0.766995551841441,
                0.11053880594965387,
                -0.17012877987290864,
                1.36095781901763,
                -0.5520152637052719,
                0.36482788180397036,
                -0.37014412719715106,
                -0.36635964696581125,
                -0.24775952845223406,
                0.20129884920121768,
                1.8076617628777827,
                -0.9553845722752387,
                -0.7762118489315771,
                -0.8238314950693123,
                1.0518869167507046,
                0.8284830078010585,
                -1.291678411770527,
                -0.6340966620855363,
                -2.19520937965626,
                -1.1359305191859361,
                -2.229344042780368,
                -1.0447901623918838,
                -1.4214542255306024,
                -0.8971972402403436,
                -0.957542737649819,
                -1.5701001778705033,
                0.3449438219072575,
                0.32418577398571324,
                1.335625042043103,
                -0.7261285342909337,
                1.1645226926267604,
                -0.17810963629733642,
                -0.13673834131872453,
                0.6236196253917798,
                -0.5926609363058041,
                -1.8572021345579108,
                0.7473609817371513,
                0.7007892960987567,
                -1.0223266175441559,
                1.3143455761193472,
                0.7211661401609816,
                -0.49371049529622313,
                1.4290692507812468,
                0.6777342391473035,
                0.28948597091419837,
                0.5018245298217002,
                1.1249566062073517,
                2.2760810584535527,
                1.3238403432697465,
                2.0596486414390127,
                -0.37427755576006405,
                -0.32957128471076125,
                1.0268267960813877,
                -1.5676276199741759,
                -0.5279468741360676,
                -0.16338368333035386,
                0.036047203409084905,
                -1.299760144512571,
                -1.5896315645898345,
                -0.5650899888511649,
                -0.6899934744121959,
                0.04927793663516485,
                -1.8797079797208636,
                -0.3647318826253751,
                -0.94346152866263,
                0.0783274540628845,
                1.0720513977208623,
                -1.171813246625693,
                -0.2600537671474779,
                1.7262423523864676,
                0.3299277112655002,
                1.456985647725914,
                1.6592652234862646,
                2.537983324752488,
                4.024846600686894,
                3.499432560635528,
                2.2858090938288016,
                2.6311964821690172,
                1.5774085769508364,
                0.5126978433853728,
                0.4796635678633266,
                0.5727624720688159,
                -1.4088899418576986,
                1.1024178034907355,
                0.06401403979032555,
                0.8284597260125244,
                -0.22166794557770256,
                0.21743258270931623,
                0.5117804292933755,
                1.3094380964170276,
                0.13178356898232346,
                0.12532367658016094,
                -0.007494465780598494,
                -1.1168362608314426,
                -1.2399746268387624,
                0.4945949036354582,
                -0.3504809691412054,
                0.6285865874480187,
                1.005421862263569,
                1.3312364419167806,
                2.517954259619427,
                2.770946963105876,
                1.5637419781655886,
                4.891835997314392,
                1.6128707795783463,
                0.22102386912373734,
                0.8520282909992365,
                0.41735706864728783,
                1.302577402453403,
                -0.632618500020729,
                1.415081602989828,
                -1.0984107633474265,
                0.1442394501142655,
                -0.05210873896116071,
                1.7879094855734055,
                0.7099423211605227,
                -0.5814719422981853,
                -0.42615885371657475,
                -1.9533256296714911,
                0.05719248189115539,
                1.3166123668463012,
                0.29483451210428707,
                0.9707713843193058,
                -0.04272592010702653,
                0.5992704264681624,
                -0.13608462403499594,
                0.7641711920047659,
                3.2937448398330957,
                2.0860703283989634,
                1.9171973595124685,
                3.3266216991990607,
                2.797974171488377,
                0.47680802748712675,
                -0.16272112909396166,
                0.7613187408886942,
                -0.4493129435368422,
                -0.11779170193612717,
                -0.8255501105505454,
                -1.2904877936955774,
                -1.6379343856576316,
                -0.8416207339866154,
                0.18980224752989464,
                -0.6146078352897536,
                0.8079628968581012,
                -1.4505124097671498,
                3.028716898936277,
                -0.003917805243630013,
                -0.025532806931066337,
                -1.329796417554367,
                0.2292900231971528,
                0.5278320837843492,
                -0.6861054654010379,
                -0.4516707168370511,
                -0.2947436417932963,
                0.7176226310821182,
                0.9558925785291204,
                -1.5850456773023884,
                1.443087742372742,
                -0.0587764261860981,
                -0.5129519982474842,
                -0.02392017667257023,
                2.0094289624229806,
                -0.024235781169314675,
                0.967321840305482,
                -0.08838996068471515,
                -0.4710831067759522,
                -0.02042523477513379,
                0.09179162427923945,
                -0.19702917744062481,
                -1.707679560473124,
                0.27681176304819266,
                -1.3597691129332719,
                -0.26267707790674955,
                0.3521885132521881,
                -0.36409234465777,
                0.5353639943725194,
                -0.9415406443290579,
                -0.14626804757052675,
                -0.5643731978274623,
                0.47103073788225513,
                -0.1701252061320214,
                -0.9615972776426777,
                0.7756467347941113,
                -1.3049492214237481,
                -0.17584824276442285,
                0.28721546140657805,
                -1.8399123427772284,
                -0.12970975335945154,
                0.4741810446753736,
                -0.16641871421039933,
                -0.5730883727369693,
                0.689712208677288,
                -0.3046090165908116,
                0.21685453556669917,
                -0.5700931896864679,
                -0.789657111266314,
                0.07733620186727956,
                1.5543556066971624,
                -0.44386895932506854,
                0.3916752717316583,
                -1.2556663411039621,
                -0.7231776569547027,
                0.5585306690045057,
                0.6792471060261185,
                0.19304857682177398,
                -0.24784915546221364,
                1.5439095733879034,
                -0.0024759038810490555,
                0.039588135822270325,
                -1.231485081395136,
                -0.8885608790683197,
                -1.1796075727865731,
                -0.5986696349749285,
                -0.24010282483788464,
                0.17551001800394506,
                -0.3352874409865971,
                -0.30129377355182807,
                1.5980605182734258,
                0.7125521924099064,
                0.5725512973146495,
                0.9775952490973161,
                0.338166021196036,
                0.23866430794732488,
                1.0768570003907478,
                -0.4670234596302817,
                -2.4961148275698686,
                -2.137865324911897,
                -0.021465519697072225,
                0.23792440847520138,
                -0.42474220345360403,
                0.2137970204984309,
                -0.6388325705641569,
                1.708031463258772,
                0.17482228471449007,
                -0.036937609994244974,
                0.5473927201762856,
                -0.28641579965221114,
                -0.7325934189585265,
                -0.04575390219198922,
                -2.8743186589897993,
                -2.844431937945989,
                0.037345826205413796,
                -0.6877848018430257,
                0.16756736454892496,
                -0.801610643903391,
                -0.312992414327988,
                -0.1758314670666454,
                0.01922789935420901,
                0.7946575316614481,
                0.2225238624779258,
                -2.22743448582762,
                -0.8463240520166722,
                0.08250223909593513,
                1.495119656178169,
                0.8591045769138044,
                -0.3542811926170724,
                -0.6947924908206877,
                0.3182832308889692,
                -0.01934192422861898,
                0.4787724251989507,
                0.25388880341692477,
                2.2313419456569505,
                -0.3698621350447219,
                -1.2298302669357997,
                1.1855639678351488,
                -0.49747790732067276,
                -1.075401680565635,
                -0.9450907495170631,
                -1.488955112928226,
                -2.4099930152296523,
                -0.36187987044016073,
                0.3004622589293488,
                1.0001666855080247,
                -0.29506786103022664,
                -0.19912434010799399,
                0.7216515494531038,
                -0.25197614152011466,
                -1.333988134228727,
                -0.19336078477012733,
                -0.5397410968365806,
                -0.9661878383876297,
                -0.9979482698559129,
                0.6628312524633688,
                -1.077217098142389,
                -0.9474469489828072,
                0.7234819211971693,
                -1.2850134384785468,
                -2.262184205821302,
                -0.701721254962412,
                0.8602153489056978,
                0.9483512136720291,
                -1.5772333293730232,
                -0.21603856577800923,
                -1.4920338374431148,
                -1.179877355854502,
                -1.775689961366194,
                -0.9912021183543986,
                -0.9374141000140219,
                -0.6354464248389239,
                -2.143740722532067,
                -0.2857192681375185,
                0.25557055897088604,
                0.9512250692622907,
                0.014295598438268598,
                0.9513219771383968,
                -1.2308960293102769,
                0.7887081336348472,
                1.8344606465273856,
                -0.27492341798124703,
                -0.1083557576565095,
                0.5846109645461222,
                -1.101058656616041,
                -0.7019071167161767,
                0.053571022606263584,
                -0.023567363298106877,
                -0.675916532230064,
                0.8439551131022949,
                0.059642265512381644,
                -1.0764000869161165,
                0.38102782715849604,
                0.11899658787945225,
                0.9015859820326285,
                0.4519594488072101,
                -1.771271645718851,
                -3.3468091286866337,
                -3.7262518278426198,
                -1.0679514368337397,
                -1.1246921335753108,
                2.023555033899782,
                -0.7113808343441897,
                0.45967126583855433,
                -0.9197864693425412,
                0.9260010652706798,
                1.0477161506994204,
                -1.286577613318392,
                -1.176632517165383,
                2.4524579677587695,
                -0.08674308416266951,
                -0.4117436664999259,
                -0.4414785260925181,
                -0.5466390908996415,
                0.4840011054059743,
                1.2727907148145345,
                0.8784390843582843,
                -0.21060701356323186,
                0.7400677998744444,
                0.7188040958941913,
                -0.34835650176647887,
                0.08988169186667329,
                -1.25877930139125,
                0.18040054681928863,
                -2.3238146335344783,
                -0.8890194917954526,
                -3.211899354197524,
                -2.252654187424117,
                0.6443924729805399,
                -0.8416002256891209,
                0.7945302950730381,
                0.7987800717842454,
                -0.312582856059741,
                -0.38855824173614467,
                0.701207329874395,
                -1.5414193267996366,
                1.041909290053418,
                0.23820272191448957,
                -0.01214246176328196,
                0.3206003263275313,
                0.9286282721121543,
                0.7363286090376234,
                0.4792727345050299,
                0.5396046846503929,
                0.5758657582920582,
                0.8425523549691547,
                -0.8319858407428501,
                1.2075386206650223,
                0.21341631307228215,
                -0.18493752796169785,
                -0.29125494783547484,
                -0.4616904974366319,
                -2.2848077723628544,
                -2.5013173645059825,
                -2.448859616939259,
                -0.40363490475989466,
                -1.1628299878719373,
                -1.8630410346842738,
                0.9057614276801457,
                -0.21824424411411117,
                1.0396341437535268,
                0.6490043462190495,
                -2.0851278669128703,
                -1.0768214426168485,
                -0.21028723228582524,
                -0.1771860946679448,
                1.146920917846376,
                -1.099011877454191,
                1.0945254800404147,
                1.4832274584501162,
                1.0141898304496453,
                0.512850279199488,
                1.8412863158351376,
                0.6657024382426724,
                1.0770614270484669,
                1.1890625504627808,
                -1.4955743321570905,
                0.007954896150038436,
                -0.3485467620706282,
                -0.9111701143574006,
                0.17595931042021962,
                -0.91155356073202,
                0.6263259519884901,
                -0.016797086786929045,
                0.11817078174335387,
                -0.015428120042313477,
                -0.7083932165245057,
                0.02632899611716355,
                0.06823741345864097,
                -0.23413674139958873,
                0.2840006579052839,
                -1.9939024903736173,
                -0.22193772268118986,
                -0.034399798070705895,
                0.2798885433493241,
                -0.021242831199778135,
                -2.008475478173853,
                -0.9283999450418583,
                -0.45132599873601753,
                -1.2626000565442626,
                -1.4370511552483656,
                0.6239729822343496,
                0.42895138114352627,
                -0.40521502897651235,
                -0.9490550682259096,
                -2.0974267785214176,
                0.27562687177333556,
                -2.283588828464986,
                0.08041226093953698,
                1.2731670308372385,
                -2.8654599656460564,
                -1.77555607036879,
                -1.8537688905326746,
                -0.19701542600669755,
                -0.30303128649943883,
                1.1536704437078384,
                -1.1147405943637658,
                0.22374348260174695,
                0.29325032430777476,
                1.123109859297395,
                0.014240768896301397,
                0.14314647337989134,
                1.8587026348759481,
                -0.06882994785202391,
                -1.0453064136570946,
                -0.2992584434902685,
                0.45400483951991827,
                1.410618352105441,
                0.8193472627879924,
                -1.7996397348891595,
                0.87714340258227,
                -1.5512021275687444,
                -0.3329877388948941,
                -1.351096808205709,
                -1.338778463329184,
                -0.669944152523738,
                0.12079861457480132,
                -1.9415245934165706,
                -1.500960570348526,
                0.47683348806892806,
                -0.7170061874287641,
                -0.3658246930949221,
                0.5166006200607349,
                0.12448221176192108,
                1.060408576269388,
                -1.718422564390151,
                1.1853157739601088,
                -1.8737951149066423,
                0.8600525030825713,
                2.8471786016249503,
                1.1453883833630252,
                0.0050008677674032425,
                0.1874030652013053,
                1.0542337185574429,
                1.4498619379855973,
                1.2397284345594208,
                2.6638432380534236,
                -0.23916353050227218,
                -0.5541111061465351,
                0.04265509096356085,
                0.021200621229671875,
                1.663631538511141,
                -0.8764579810749289,
                -0.9208916845768482,
                0.28599151893438385,
                -0.06081657000387984,
                0.4514523110062625,
                -0.7757924057958647,
                0.6454175812348888,
                1.132026187517624,
                -0.015613642592687335,
                0.7275074604511754,
                -0.28881997278017735,
                -0.4714086858865529,
                1.232554387140411,
                0.28857630891208874,
                -0.07638476692825538,
                0.3203694661218083,
                -0.03156558309754042,
                -0.8206812247914043,
                0.036241958649874506,
                0.7348910588779711,
                -0.6223476289386601,
                0.560670575316702,
                -0.08595597962499234,
                0.5568944310832945,
                1.6130476252045975,
                -0.35419310523778075,
                2.43163687779338,
                -0.473902150732316,
                2.2254691544824956,
                -0.2445912552277014,
                -1.2575801234245703,
                1.3526536573477164,
                -1.5040035779848722,
                -0.57934000349472,
                -0.2655092363773717,
                -1.2403493496936637,
                -2.0453595057351803,
                0.48017054700708434,
                1.002738400704248,
                1.3186376710374903,
                -0.1534846163909552,
                0.7675127506589704,
                -0.08736717002232199,
                0.42699783121769036,
                -0.7868606017322095,
                -0.8015403304645282,
                0.3759562505302767,
                -0.22865441084696086,
                0.7646356283872632,
                0.07018421400292187,
                0.8077019316246753,
                1.0013483128764906,
                0.1856732842997989,
                0.12212485189040784,
                2.1628987343302866,
                0.32555786615575477,
                -0.47820992692733333,
                1.3573278290118915,
                0.036833285324431295,
                0.7674896432339859,
                -0.27634880112093,
                1.9367025725989195,
                1.0524143371094163,
                -0.46079499755751374,
                -0.2774004651315877,
                0.2778358818885112,
                0.30865351090407217,
                0.7809565013934398,
                -1.986934432806961,
                -0.38807201929402496,
                -2.4313667719368186,
                -0.15542936421196546,
                -0.20037881099789193,
                0.8540719143850031,
                -1.7656577092949879,
                -0.7160926583416511,
                -0.12790291140453938,
                -0.4366381568901049,
                -1.6188066028483927,
                0.7624267226078142,
                -0.052003512187264095,
                -0.35323570866520454,
                1.141055278266558,
                1.7267046037396503,
                0.627504426599826,
                2.0498714108772087,
                1.25071149727078,
                1.9512569517512166,
                0.6709321559857917,
                2.1815035935835154,
                -0.5608750628970658,
                0.9115353809731845,
                1.0898092128410388,
                0.48986395874033445,
                -1.6306913497629905,
                1.1575439015675244,
                -0.4648666045679764,
                1.2350622500820065,
                1.4621075991531343,
                0.7360639614058274,
                0.044559215441914664,
                -0.3073717052743089,
                0.9350408654143035,
                -0.6501747524669401,
                -0.9682337128344942,
                -1.154540182505717,
                -0.7502723909107253,
                -0.5593359144023987,
                -2.142312235690648,
                0.8851811725523813,
                1.0020416457027363,
                -2.567102846957449,
                -0.9138434932015174,
                1.3052881993192345,
                0.7142820226555783,
                1.138485719623286,
                0.16521624628139173,
                -0.776115241830728,
                0.11959502478276174,
                2.2368033661991586,
                -0.5594691086502668,
                1.072331782320899,
                -0.6623387494961922,
                0.36349692455677385,
                -1.1143950570345305,
                -0.04503315648443487,
                -1.6585963399325612,
                0.8220005681870336,
                -0.41463478078229027,
                0.12904512341474464,
                -1.7702725628104161,
                0.5945054796352347,
                -0.9273925376142661,
                0.5901828679552598,
                0.6259642417594747,
                1.1015651544205387,
                0.22225939830868063,
                -1.4718881872855734,
                -2.2474480490300754,
                1.1405184582902814,
                -0.8516311126511473,
                -0.49559344305918557,
                -1.1508392452560046,
                1.119347239936965,
                0.14090891513396744,
                -0.7040063468212718,
                -1.255375924978387,
                -0.40844813990872286,
                -1.8533146387731605,
                0.2244046353816554,
                -0.02298313000891761,
                -0.13118653999352803,
                -0.8621816466739681,
                0.6726366961818734,
                0.2013142560758463,
                1.553889922497264,
                -0.30414222036727045,
                -2.613592408398289
            ],
            [
                -1.5968737133931183,
                -1.0051429731259045,
                0.5702778664450014,
                -0.3518367679599767,
                0.011747144422910636,
                -0.16375973259011606,
                2.219317165645568,
                1.2369107597551992,
                -1.6473857979863313,
                0.14020401132647742,
                1.069830238365065,
                -1.394155374180129,
                -0.7356825378912792,
                0.21974409989266688,
                0.1108537507017646,
                -2.471980693162044,
                0.20403921910874176,
                0.7856703103655431,
                -0.709779942765027,
                -0.07313821298527123,
                -0.7808838598977494,
                0.17991548180764455,
                0.7478174044195398,
                0.6023262118016809,
                -0.14219251589077042,
                1.658470864131286,
                0.5921096890706725,
                -1.439953449810393,
                -1.1773106702761094,
                -0.3634025344636543,
                1.6415040094791744,
                0.07020489293127335,
                1.201874340543547,
                1.2741012760335142,
                -0.8543693847621693,
                -0.16652820023471143,
                0.48603267987731613,
                0.9932563866406771,
                -0.5889534288815369,
                0.058019998557495546,
                -1.0172377472926164,
                1.010062143696234,
                1.3277569272516885,
                0.31726374220536047,
                1.4712097176689254,
                -0.7567806090025476,
                0.6005857727992002,
                -0.6920573201981602,
                0.21245345893561893,
                -0.9289124626511172,
                -1.0681172121427267,
                0.1964243842960712,
                -0.578464965488723,
                -0.8936259063860139,
                -1.0990954134646551,
                -1.021554236857439,
                -0.4259071683148644,
                -0.9027628956822216,
                0.5651391379698968,
                -1.3062588386815832,
                1.4936666631479945,
                1.5149468577385155,
                0.7967531852422428,
                0.21506574280616075,
                -0.25530940559106974,
                1.4307571223325093,
                -1.145309476624647,
                0.62492898024834,
                0.6876632535776569,
                -0.22470729505062195,
                0.11330039577730745,
                1.256294208755147,
                2.0852724426923865,
                0.8557628915775083,
                1.4588029899611794,
                0.7458169451057246,
                -1.2539300373650726,
                0.831900928962671,
                -0.11436029280735645,
                -1.41458783345185,
                0.3110853993884475,
                -0.81291880103628,
                -0.23127188163285958,
                0.83003674701295,
                -0.853218242373829,
                0.8146649582561527,
                -0.4942421728695702,
                -0.31492805795024437,
                1.55957034883791,
                0.5050221514269022,
                0.4177009240192025,
                0.669183747314717,
                0.3914912335801528,
                0.8090203160250724,
                -0.7640050998937356,
                -1.10405062599902,
                -1.6939683236503993,
                0.4146836219385468,
                0.6957682872486936,
                1.1295585664744863,
                -0.6414074403183784,
                -0.021689774856460328,
                0.3893190348388682,
                -1.377851561115288,
                -0.12355782880576054,
                -1.3263291648563946,
                0.9863621078606868,
                1.026861417335412,
                -1.675990441223549,
                2.0154075374828966,
                -0.5689777461600285,
                -0.5236250834666109,
                0.6735129861719037,
                0.5878359802290124,
                -1.6464986163457247,
                0.015590168980158437,
                0.2630961422033797,
                1.555417594465606,
                -2.7429647385398845,
                -0.7862225135358434,
                0.32674135920118297,
                0.06004540826399437,
                -0.5641337465771653,
                -0.026633535823854627,
                0.3507528147245007,
                0.9024022501067814,
                -1.8378824639234792,
                0.593284743725549,
                0.3917527181731905,
                1.7912246494275745,
                0.7258797879261738,
                1.4289233756465047,
                1.405821833018144,
                0.6057618083485407,
                0.05389412383320459,
                0.320083670653749,
                0.3039102487935396,
                1.8733247119101069,
                0.03965424726929269,
                0.9384877741792415,
                1.3746505871136327,
                -0.5137751814858051,
                -0.8590906557151167,
                -0.7817439307724022,
                0.001103251443923625,
                -0.3343735304489206,
                0.4964544060130208,
                -0.7882126794530091,
                1.359836237864822,
                1.310258210425775,
                1.887204438907368,
                1.844039589476754,
                -0.5171607523223936,
                -0.8825783035293365,
                0.793847785708278,
                0.5818778151301311,
                -0.6659699553278744,
                -1.7275349689016155,
                0.6718688231660157,
                -1.625933137299982,
                -0.9454057638577127,
                1.1870046475777303,
                0.12893059684744318,
                0.4440122398487083,
                1.2012047698716135,
                -0.24106846139202576,
                1.120973178566535,
                1.654409372016384,
                0.7751991656811055,
                -1.287363332095455,
                0.26604396160009547,
                -0.5079598488057555,
                0.7702357492545343,
                1.5318775047808895,
                -0.3335914665078245,
                -0.7090277891921277,
                -0.20257734007993208,
                1.691207023548178,
                0.3426954383649299,
                -0.5675998671789653,
                0.36144800179817427,
                0.3272344178467257,
                -0.27213902745455654,
                -0.01212873557155821,
                0.18447241090878108,
                -0.838038244768126,
                -1.3891049723696984,
                -0.16574598758163375,
                0.59609038082898,
                -0.5028761783975035,
                0.06854883771042818,
                3.248238904435319,
                0.7403182711152649,
                -1.2379325388959095,
                -1.1670445560225737,
                -0.02268447079229009,
                -1.104577646733475,
                -1.3214473900926367,
                0.11798897105725482,
                0.779351458636493,
                -1.7069964269842337,
                1.4547721666506093,
                -0.4751401013307289,
                0.23980729452593738,
                0.05463642483461014,
                0.30783813818661654,
                -0.7937964405664463,
                0.18888776340510122,
                0.5867320640408726,
                1.7028029994677611,
                -1.4605439391314023,
                0.8167113972467548,
                -1.5716057313463163,
                1.3702393921222715,
                -1.4744045590763628,
                0.6194007687565958,
                -0.06648048910094478,
                -0.467716471864267,
                0.8808161030255613,
                0.9191873007714445,
                2.0033936379770605,
                2.962047152196349,
                2.3411002160742878,
                -0.5045493916915372,
                -0.4112401070785486,
                -0.16002034472555227,
                1.829071753429745,
                -0.6974227756591277,
                -1.3296279809355573,
                0.8574595539928682,
                0.003953082444635169,
                -1.7938301567356791,
                -0.5963357633039587,
                -1.3962228690990093,
                -1.261219109903754,
                0.3238794269849202,
                -1.6366741389619917,
                -1.7531019437789772,
                1.031083275670962,
                -0.5864600291580687,
                -0.35882587894464496,
                0.3729707426122454,
                0.3978606254557449,
                -1.8200948721022638,
                -1.0705435430241799,
                0.1343427328432311,
                -1.7294509919592989,
                0.301716075553144,
                2.334349136535114,
                1.4967547650737174,
                -1.4486811520051563,
                0.09890488729135337,
                -1.523606065741014,
                1.045532287038616,
                0.5651662867084097,
                0.34864507974750236,
                -0.5298178897216972,
                -0.6894797421585561,
                -1.1104963514943604,
                0.12921493918432747,
                -0.6625443055185503,
                -0.11520696270196144,
                1.096655228040003,
                -0.27113850384178423,
                1.0678366440109133,
                2.398523499755102,
                1.2697943909984188,
                1.1259975987349027,
                0.06632733090663362,
                -1.7935375718545985,
                -1.5643720838376964,
                -0.01373517526500602,
                -1.2732443170692682,
                -0.3124185800750496,
                0.39832499289630147,
                -0.4078559833789586,
                1.8662286821179923,
                0.8572368960077404,
                0.25392778712066866,
                0.5684644909111705,
                -0.21035311660932815,
                -1.8277560854133,
                -0.6889583881476101,
                3.2352593069951885,
                1.2811049814972064,
                -1.4275088429778395,
                1.2358751739533063,
                0.886769173888497,
                0.8742715072094829,
                0.5638684125657732,
                -0.2944542943789362,
                0.7031892351635671,
                2.86017363003085,
                3.584017045261384,
                0.8734586316797822,
                -1.1506997302885813,
                -2.7438855522471575,
                -1.526139506427615,
                -0.35436052104522353,
                -2.36723353996983,
                0.9174498706352746,
                -2.1281240628122107,
                -1.7289088293364254,
                -0.26628965464970417,
                -0.9083897820018015,
                1.296762491956934,
                0.9733079891414782,
                -1.450634359846655,
                -0.47969090649198365,
                -0.8801299399780155,
                -0.3506015190096168,
                0.30469805979394715,
                -0.899483750740149,
                0.34732864877507785,
                0.019728566736355854,
                0.7191054448080337,
                -0.31941221233810985,
                2.1030959452364923,
                1.9725073173483758,
                2.0579333667608415,
                3.041651883504857,
                3.063700841588195,
                -1.3964667208692476,
                0.17911578953641,
                -1.482950024939908,
                -1.650653249274384,
                -2.4623681719361254,
                -1.634324855321767,
                -1.201597425117851,
                -2.226520375242299,
                -0.7503014716243152,
                -0.7933494986686895,
                -2.495951435882493,
                -1.0897732297022522,
                -0.628976993914772,
                0.08269375086557479,
                1.4342896665283051,
                0.7441663489501659,
                -1.155140119182471,
                0.21175103338472118,
                1.1151149943594603,
                1.5821470071276622,
                0.7424823783990486,
                1.229916627581766,
                0.7666516206658797,
                0.6739599122033243,
                1.9143316746468224,
                0.1184132749759772,
                -0.17217156821049967,
                0.7372993160568919,
                -1.6061696244809394,
                -2.8460301122777474,
                -0.6960277752827688,
                -3.6442361347742556,
                0.05631433082174904,
                -1.1813251852552182,
                -1.1223829042431124,
                -2.1665671301927873,
                -1.0021566334495526,
                0.5965338489559581,
                -0.4264647042678817,
                0.8539197352702055,
                0.8740533499450721,
                1.2290965619839553,
                -0.013584685130614112,
                -1.0333194040110323,
                0.35739645862381736,
                0.880601603205394,
                -0.009461858290562362,
                0.35997456736296324,
                1.8044219539741218,
                0.45833732876068567,
                0.3154710718211616,
                1.477549731550276,
                1.290898360551864,
                2.0983402478010165,
                -0.7408439114325868,
                -0.2116905208492246,
                -0.7124397531021707,
                -0.019317344387650114,
                -2.7798009579541767,
                -0.8188644533271667,
                -1.240456852205301,
                -1.2446160817598628,
                -0.8602076545113108,
                0.08195109813945363,
                0.34747900705115364,
                -0.9638032161499313,
                -1.0188507509492555,
                -0.26845595574467,
                0.09237138490132478,
                1.3169821234625871,
                0.26880957724364224,
                -0.6613016878239802,
                0.4762678687831416,
                -2.137555046323786,
                -1.0467165521825228,
                0.09718417497751648,
                0.18004295072818766,
                2.2601105115569844,
                0.7835014367977443,
                1.7495422468535504,
                1.4011984030748568,
                -1.1517144234978731,
                0.2239857703987154,
                -3.123991352949081,
                -1.836643214389519,
                -2.1186816433182134,
                -1.0455626068202537,
                -0.43704952677373043,
                -1.2786668000574988,
                -0.2811902489395048,
                0.6142493171290595,
                1.3624441295042327,
                0.9976002336528451,
                -0.20350639357307215,
                -2.1053971988603606,
                0.5100330194463889,
                -0.9498226461644308,
                0.42912320521262215,
                0.04052474907361447,
                -0.8238147138209627,
                0.6661828820216221,
                0.6511025653825007,
                -1.3947877845245287,
                0.5730448410995125,
                1.0696295725875644,
                -0.6260669774681874,
                0.24764402381322465,
                0.7141453850468981,
                0.3229311318176146,
                -0.0505055730524849,
                -2.050880630238378,
                -2.2970283143508805,
                -1.3765171807395582,
                -1.1863962832655153,
                0.06252438105249794,
                -1.5268531400601337,
                1.1025915269657969,
                1.0507094259394258,
                -1.3045479565517222,
                1.3287484850095104,
                1.9127492024936819,
                -0.25893722360217686,
                -1.0747049876132153,
                -0.05421772757045729,
                1.4577747924134365,
                -0.44313997514443787,
                -1.4537589701045481,
                0.26541574811276225,
                1.464625819835681,
                -0.9909712468653306,
                -1.4611644527827492,
                0.5597909344085057,
                1.633507167023286,
                2.3640100197605296,
                -0.7870476010696069,
                0.2600445737342203,
                -0.7459867072850562,
                -1.781264446511096,
                -1.7197187591000096,
                -1.1215445576422252,
                -1.5529991510157037,
                -1.5092598549564469,
                -0.2847627614418184,
                -1.5399675435755995,
                1.012359523343725,
                1.3938854059820367,
                -0.38032998191813605,
                0.963165569514388,
                -0.16135266555010863,
                1.761584945051949,
                1.5741876738212994,
                -2.264779546870037,
                -0.6993718494111953,
                0.6249404276196038,
                1.19795597041279,
                0.4680940489833251,
                -1.32885355076279,
                0.34127523527606585,
                1.4359513430483337,
                -0.5935607753442674,
                0.5739318332818316,
                -1.361053787095975,
                -0.5212692265234601,
                -2.160079028753891,
                -1.77525892631683,
                -0.6737105660589753,
                -2.2235282884536085,
                -0.8614467531836032,
                -0.3098021834402939,
                0.06671465481910074,
                -2.678364551878011,
                0.6008892027050282,
                -1.0073051058084879,
                0.6493546134678698,
                1.0994995569396047,
                1.0647688292854827,
                0.8262462929102549,
                -1.0080044955358667,
                -0.6195195737254141,
                -0.1974197077065449,
                0.8300099403962413,
                0.0653893019185728,
                1.533772832196604,
                -1.2162102953198857,
                -0.2422370749088838,
                -0.13350883494023685,
                -1.0398944415880786,
                -0.43910818783679695,
                -0.3460325707449504,
                0.7390280919069933,
                -0.17433614150088358,
                -0.46282547433954196,
                -1.0230069651789937,
                -1.1441147959730542,
                -0.6635937798609887,
                -1.0672198149400816,
                1.4293203917541446,
                0.33139992324006323,
                -0.1781848835056281,
                -0.1019312141809803,
                -0.5235441718335239,
                1.4311198197339645,
                -0.2292429177146728,
                -0.3304933348976189,
                0.15299879504334446,
                -0.3158184968165365,
                -0.9131972845990394,
                -0.022982223504974926,
                0.8477716542607209,
                0.5425689446723158,
                -1.8698628423622496,
                0.5350257656963479,
                -0.6998531081056457,
                0.08056763603223993,
                0.12910468137155293,
                -1.1212756395354513,
                -0.3567375153324976,
                0.24608070741141874,
                -0.3613369852621784,
                -0.8889432187773002,
                -0.6116901386662061,
                -0.7151274372036938,
                0.5287533148195583,
                0.47961876891428756,
                -0.03682569241380098,
                0.3595494925478032,
                0.7298091626211597,
                1.1892240615792506,
                1.0424591350291743,
                0.10071268982705085,
                0.38732695470313394,
                1.9654137009970127,
                0.5510600461168145,
                0.2693617471438203,
                0.13592425266927782,
                -0.2860486238467423,
                -1.8430646479449422,
                0.9950787825689386,
                0.8057256929388161,
                0.9047334567154395,
                0.08586054784684491,
                -1.3160841320018177,
                -3.2944776310725983,
                0.5356747123895175,
                -1.6484923378719298,
                0.6200497826106666,
                1.5907339257758533,
                0.2269866555995576,
                0.8292821129810749,
                1.7588373543610933,
                -0.888689612508537,
                0.9057544596727083,
                1.194211526159212,
                0.9660105161735018,
                -1.1379116116667853,
                1.5818278456137391,
                -0.9266498296691161,
                -0.2578385558671639,
                -1.1036013963509435,
                0.4009327637456889,
                -0.35691001200097655,
                1.0652847313168015,
                -0.5754649732482826,
                -0.15016613953316946,
                0.5698201516840941,
                0.46792262398179685,
                0.8846740370246459,
                1.1263123921253708,
                -1.025207473526406,
                -1.1255967718800957,
                -0.6471067345603708,
                -0.20332185637069145,
                -0.7375239032512404,
                0.3298239325393929,
                0.20768049109475742,
                -1.1845285270661745,
                -0.4218037268555984,
                -0.6252665947767992,
                -0.33507936522368037,
                0.8475431775707464,
                0.566469397423456,
                -0.9912828468550489,
                1.1374506002915117,
                0.28856774019900083,
                0.9489231767018637,
                0.4555518631151386,
                1.2929311036055087,
                0.07572145497345356,
                -0.7517690387389068,
                1.1621837503398575,
                -0.8842337923711033,
                -0.21655312339702706,
                0.19310094873880845,
                -0.24599201897599823,
                -1.1824550111081236,
                0.15015689850532785,
                1.146871013981242,
                0.8412755368637186,
                0.2970991282667565,
                -2.3409735927770483,
                -0.20872576586388894,
                -1.1830709680700773,
                0.15426683924689555,
                -0.3030796522978608,
                -0.6480972104994609,
                0.04718378566676129,
                0.6841479246675,
                -0.13488922730809802,
                1.652222617568066,
                1.9141529307143785,
                0.3323099958629041,
                -0.8137491539168487,
                -0.7449350936623881,
                0.9798513941106812,
                -0.4704838512841372,
                -0.1379136769149665,
                -1.929316446132133,
                -0.43694980118011667,
                1.651053551239119,
                -0.6622111563167776,
                0.05109169280406775,
                -2.154983919834122,
                0.2521069502945313,
                -0.5081750099388631,
                0.4945777758479065,
                0.12151833002374882,
                1.2236781298298132,
                1.527376456644972,
                -1.708793210480998,
                1.6293152969563214,
                -0.23093947988610694,
                -0.5075244436871742,
                1.016360941378262,
                -0.5174335100144061,
                1.0648882078183914,
                -1.7623301948512813,
                0.7880506163033837,
                -0.6498428129321274,
                -1.0082633420841292,
                0.5615569368893473,
                0.2340488129798906,
                0.22500652664579376,
                -0.1340331267972619,
                0.6440690694727683,
                0.7889537773264269,
                0.9663244609531655,
                2.2212330174520183,
                -2.029913323394208,
                0.38264623390465957,
                -0.5881448930754498,
                -0.5620048665824011,
                -0.36875638780490994,
                0.17682394883384434,
                -0.2518740502068901,
                -0.4948163743685301,
                1.7169415000001083,
                0.49175749195927443,
                0.1975400839792006,
                -0.35191550457555476,
                -0.17339683890440774,
                0.7170726401271286,
                -1.1950333271044198,
                0.8412280618891478,
                1.366542876758194,
                -0.38448201232573764,
                0.9096172588793624,
                -0.5592067576787455,
                0.002795847599343618,
                -0.439091430938768,
                -0.5477727815741525,
                -0.6948694821346526,
                0.06901130532094601,
                -0.04508038498752923,
                -2.1641820975455324,
                -1.462211602793946,
                -0.015967196499761978,
                -0.043440144405279275,
                -0.24103804279405167,
                -1.431423059466328,
                -1.5878635110457522,
                1.3186625780758017,
                0.10755284617615095,
                0.8053455080773821,
                -0.8128963585228014,
                0.001889829154775351,
                0.41390129269085835,
                -0.1784500811282047,
                0.4040469147414814,
                1.2634752942898608,
                -0.8483940199272687,
                -2.8045183863886765,
                0.7985516074666738,
                -0.8695491747711258,
                0.1486062581548034,
                -0.3770466567155428,
                0.7422693102338778,
                -0.2305449598177752,
                -0.5064219856364621,
                -1.4567850153188333,
                0.7014706311551031,
                -1.3003824084197568,
                -0.29119790477580687,
                1.0521740603403447,
                1.294430508050752,
                -1.0955764864415096,
                -0.14536225475463882,
                0.6284370398117066,
                -0.737332414257201,
                1.7960811534333936,
                -0.5173694473008327,
                0.6119409554880558,
                -1.0621016329375068,
                0.3560128038148471,
                0.8456492025061988,
                -1.6617199711021613,
                -0.6213903077221888,
                -0.8932315535568295,
                1.1658527376500862,
                -0.08884985965831614,
                -0.5842570231274434,
                0.5007468574129705,
                0.12820514675381098,
                1.4025050053433432,
                0.4410232434361156,
                0.729681198016928,
                -0.4816369696133574,
                0.17181127385023764,
                -0.8515912561808273,
                0.6537443536305665,
                1.3983226161186326,
                1.4354366097136428,
                1.9189438135714596,
                0.10440203524122893,
                -1.1392843306916989,
                -0.37479908092344594,
                0.6741569776825969,
                0.46147637014758897,
                -0.07813173537358623,
                -0.36560596615021196,
                -0.16642270202539428,
                1.7344362302188865,
                0.486311026094442,
                0.7401544386055688,
                -0.3322309594919159,
                -0.47364489174338736,
                1.0284944292673326,
                -0.8824045853058693,
                -0.7032711216284263,
                -0.28995530409611225,
                -0.08064279712200184,
                -1.1062407843217676,
                -2.0902569691653947,
                -0.6667309909876731,
                0.7563252103651568,
                -0.9634784261394242,
                0.28263869758159416,
                1.0515242628636865,
                -0.9088193935404142,
                -0.8655880975518465,
                -0.8912258489962546,
                -0.5635918818316388,
                -0.08369773574932443
            ],
            [
                0.6855682502059032,
                -1.5495953402814662,
                -0.07559988708287241,
                -0.19659602684512742,
                -0.011772310172564379,
                0.4899225849979763,
                -1.9088443551604566,
                0.8893211112746323,
                -1.4310629808112512,
                0.3479263859266659,
                1.2836499477026806,
                0.1671696956505819,
                -2.688673783662349,
                0.0751738693491164,
                0.07833811453263934,
                0.6436368129656324,
                0.36621054176405754,
                0.30326939483202076,
                -2.0839224150072044,
                0.06631674512703245,
                0.3691952822011605,
                0.31734728617881364,
                -1.6284236889988613,
                0.21358815563072506,
                0.5584047585477242,
                -0.41348010775388266,
                0.8010747026937429,
                0.20058155983575893,
                2.789096141194866,
                1.7102932482085493,
                -0.4229679720196427,
                0.2529290858714555,
                0.12237410804343543,
                0.44317770728513445,
                0.01174087978166497,
                0.1559122470260793,
                0.6222703853821018,
                0.03143494561992384,
                -0.027963496700752943,
                -0.3730852066854721,
                -1.4418557530883624,
                0.891466628025049,
                -0.09992468719840586,
                -0.956269388503998,
                -1.1791495622612038,
                0.6992618269708087,
                0.8300906365179438,
                0.8624266103258718,
                -0.4254292339196105,
                -0.18781013308500016,
                -1.6058854508632707,
                1.429459502480408,
                -0.28036352434501893,
                1.0600529069503266,
                0.9024757287373997,
                0.37239909846031183,
                0.3105188763746963,
                0.12687055094088753,
                1.670006018748528,
                1.5667374152334683,
                0.13730765186008478,
                0.2230854154099074,
                1.823615359684654,
                -0.5289448703943708,
                -0.7817520450010321,
                -0.18170661559742496,
                0.09101119538642996,
                0.17185597373340286,
                2.9459447711797297,
                1.0059280830850388,
                1.2968908274135516,
                -0.4776415264257811,
                0.12665271225463282,
                0.7117255361763962,
                0.5334525828247713,
                0.5907087779328256,
                -0.5912453364854392,
                0.16801159065899313,
                0.0019532360310156997,
                1.2722478436696827,
                -0.4863834134789399,
                1.4239319081713098,
                0.37189782173526253,
                0.17033088864226326,
                -0.6074952949453956,
                0.05689871789987695,
                -0.27084186622189277,
                -0.29145058404140695,
                -0.08258276873591602,
                1.2851258281712585,
                -0.20978559673492037,
                1.82461355222402,
                -0.9183915285113592,
                0.3782766177734894,
                3.513242237625787,
                0.9548950572879913,
                0.4922419430153117,
                1.2219272781874513,
                0.6199452994664312,
                -0.43556487107656394,
                0.3671792023846735,
                2.6022695856779237,
                -0.679278092024221,
                0.2553089537293976,
                1.109572215031982,
                -0.05087951781501015,
                -3.347313030717617,
                1.4479616244731652,
                -0.6317340988933661,
                -1.1992659074159373,
                1.1293486409431934,
                -0.4365531718035586,
                0.021885331738505147,
                -0.8214333900598603,
                -1.4979125771976205,
                -0.18797385552303048,
                -2.21003213970439,
                0.16923511606804859,
                1.2504203929297133,
                0.9873045211563076,
                0.34909690972044544,
                0.9453775453655721,
                2.3989090414616983,
                3.3013130017096888,
                1.1315490396658028,
                2.038188285901567,
                0.7609459203557131,
                0.6722049592097256,
                1.0755634515750674,
                1.507130859375831,
                0.7820748552240057,
                -1.0258187688787606,
                -0.8305347410841359,
                0.5295889476650048,
                1.8239890868555233,
                1.3228368373932482,
                -0.06331324857008024,
                -0.5625236521903358,
                1.5546579492246544,
                -1.231690232493037,
                -1.3323526099354523,
                -1.1866759390511428,
                0.47899434762143805,
                -0.6061226932318166,
                0.4874872943688695,
                1.8143769793428082,
                -3.168129012692662,
                0.16106715277910744,
                0.8204814042785066,
                -0.4742287564213961,
                0.19284529150726978,
                -0.2508062461037195,
                1.1214562133124573,
                2.7485068538996424,
                0.9742297724907898,
                0.21435431540712815,
                -1.6841109998063137,
                0.21721555520967703,
                -1.4349072618216892,
                -1.0993705430432377,
                1.4859380557500292,
                -0.19124431387988486,
                0.26956994331755246,
                -0.7256269197205013,
                -0.3153986670687418,
                0.49981703352760626,
                -0.5879580600623306,
                -0.43786839636664515,
                0.2903234010767876,
                1.4538042192525724,
                0.8010126250124873,
                -0.9478927282783918,
                -1.0546276079933443,
                0.7510359591272815,
                1.0222131109019734,
                1.2890559110950288,
                -0.07164237758227177,
                -1.1082628572841529,
                -0.4089964026817759,
                1.623529229792582,
                1.1093010085507073,
                1.7866518629527237,
                1.5883926656196454,
                1.1839000047434012,
                -0.2432142351078175,
                -0.1005215483681862,
                0.5231360472013833,
                -0.4650779908001037,
                -0.8892368834347171,
                1.4848956191081082,
                -0.2183619369746648,
                -2.1454309689717066,
                0.7116196763957745,
                0.1513257747721333,
                0.2521526327785182,
                -0.4754092156355233,
                1.0714429936053438,
                0.7422089791449552,
                0.2175180167143489,
                -0.8331088289901466,
                1.3934892575891875,
                -0.04096393417239681,
                1.588081365572268,
                1.2086933792539063,
                -0.9104594518183784,
                0.5422327982447864,
                0.3423581578843311,
                0.9390643189775243,
                1.8913192311717133,
                3.737542636451922,
                4.208937039289793,
                3.6807504444754384,
                4.073397005588559,
                3.5769326865769364,
                0.3570766203959952,
                1.6782670188517863,
                0.9056801019471215,
                -0.017566762713069905,
                -1.3843571177006941,
                -1.3875886058913456,
                -1.7483011894496192,
                -0.20398012552374545,
                1.0612580631623576,
                -0.9888567132994712,
                -1.5715760081039312,
                0.37434665464135425,
                1.5600879770552945,
                0.5518002138256397,
                0.0184247491152291,
                -1.5841051061075206,
                -1.8668057517227965,
                -2.4342809535834458,
                0.4337269665498312,
                0.45761353614690914,
                -0.01864745562504495,
                0.5916009505118865,
                2.853316268964511,
                1.398637550006679,
                2.946116912008404,
                2.090847814843374,
                1.2551254481132001,
                0.8518288886944656,
                0.24634119591913053,
                3.0448534567998475,
                -1.404253590299913,
                -1.5986560365968512,
                -0.8862286445396019,
                -0.28661032438883866,
                0.4379640446342807,
                0.9472371939193036,
                -0.1178150621480628,
                -0.36454264648659535,
                -0.662009338903122,
                2.0002796062313166,
                0.1468200006332627,
                1.1641501072251512,
                -1.8766925523803148,
                -0.04634689752558948,
                -0.025321177927619475,
                -1.0997315642526821,
                -0.9567942008527108,
                0.8871547553046528,
                -0.48533744547767543,
                -0.0863905269890173,
                1.4760470313413319,
                3.726970484331266,
                2.871778451581973,
                1.2440704140599268,
                1.3659809693796379,
                -1.675270110505217,
                -1.5189525408671063,
                -1.1160505026472978,
                -1.8745374241921398,
                -0.6899960947662861,
                -2.167092281142367,
                -0.12627769477854606,
                -0.6843377352148248,
                -1.0831609047324344,
                -0.4031448970769015,
                0.21603561367982993,
                0.33546103125881416,
                -0.6784259373386432,
                0.3451161832557039,
                1.4922422324059708,
                -0.0596833325068006,
                0.5110535521859808,
                0.7407667427932658,
                -0.09532782320450019,
                -1.0271825865886437,
                -0.5409796339637202,
                0.16879042130721908,
                -2.0543147760300817,
                -2.196518687044556,
                0.2447494669653635,
                -0.016836188350402615,
                -0.0017785211172058504,
                -1.4347206984825216,
                -1.5659546881543953,
                -0.3417380964340551,
                -0.015593656642170734,
                0.25640623363854304,
                -0.9482389600096903,
                0.21196613640357256,
                -0.1269440562107164,
                -2.1536637462752686,
                0.2967051581873374,
                1.0526259626503682,
                1.6334838065580206,
                0.6014697373124808,
                0.3736454678188027,
                -1.0604907720143284,
                -0.942435342736433,
                -0.6205702435420074,
                0.12702527378770495,
                0.6425260874925697,
                -0.2701227789903062,
                -1.300374890620293,
                -0.9950648553497798,
                -1.257231914859058,
                -1.249439853161107,
                0.5710751413557543,
                -0.3665847426592739,
                0.4965260258278516,
                -0.22031363835631151,
                -0.6835864401171268,
                -2.6957018790538805,
                1.6920125000661703,
                1.8464599487991025,
                1.2307461675436013,
                0.7499880442124135,
                0.26405507266819905,
                0.848819666189906,
                -2.0568308415611205,
                2.8858149789159757,
                -1.1387943486333374,
                -0.49898790872307325,
                -0.0023125638809171484,
                -0.08176464018622882,
                2.0326293314672808,
                -0.1664569119924788,
                0.6446998481342726,
                0.2895279957573399,
                0.23949374306880794,
                -1.7993183034769584,
                0.010381902429928454,
                1.3119953037750978,
                -1.929102014079759,
                -1.8034852809784578,
                -0.5119279007029801,
                1.3758497581898088,
                1.3424737310960912,
                -0.04156143232342926,
                0.5841094817693406,
                0.06496930635760656,
                0.4175306146065239,
                0.9789362615581748,
                0.29924125638057486,
                0.237988623514685,
                0.7156302989542274,
                -0.6625149322235303,
                0.5213307679430251,
                -1.0002738924077794,
                -0.26618277489627934,
                0.6214968776255835,
                -0.4658417972767625,
                -0.4458945576268493,
                0.5013793042231751,
                -0.7627851592050466,
                0.8388598566796694,
                -0.16465753190300375,
                -0.24483241825191274,
                0.06913770603365996,
                -3.184128485092304,
                -0.07508436519028022,
                -3.378438697720373,
                -3.3252880465807104,
                0.3953454237013045,
                0.9139829401365324,
                2.799985395156608,
                1.8524718786510823,
                -0.9749133667511144,
                -0.20313152231332707,
                0.2344608297083025,
                0.6774047047862314,
                1.8125048507828965,
                -1.0584608980558499,
                0.37067774686080673,
                -0.7069450581025314,
                0.9935017511430041,
                -0.0844056081483243,
                1.212262757767302,
                -0.15247077149781105,
                -1.4652638299285503,
                0.28043724748765886,
                0.567191347074639,
                -0.8596175527562043,
                -0.8902023711808279,
                0.1597160689342504,
                -2.1984139168452006,
                -0.23394519619201776,
                -0.3531332409810296,
                -1.644960868207953,
                -0.26645194104663117,
                -1.6745379296949061,
                -1.375660064316526,
                0.883156816074555,
                1.3915843430388786,
                0.0042884756320851185,
                0.6396028125317008,
                0.5775176972535103,
                -1.3579986920907225,
                -1.36373693787388,
                -0.831847085866072,
                0.4670216357506644,
                -1.7441543895394824,
                0.8409353483494728,
                1.8233022179146907,
                1.9037074023086407,
                1.8062056117591097,
                0.47269712106467016,
                0.1544142883850075,
                -1.8654821007981477,
                -0.6375450393074987,
                1.0933327678594889,
                1.2239063545549913,
                -1.2948905531950874,
                -0.577365953878759,
                -3.0036291717026407,
                -1.2995940842826017,
                -1.104236406575123,
                -0.9632840268305075,
                0.3982932345240038,
                2.369566863579743,
                0.3237817131878495,
                0.3471597449183738,
                -0.36098037718054815,
                -0.7316933143949775,
                -1.4294183327267829,
                -1.0764310414296867,
                -1.1514682713234885,
                -1.538744969220863,
                -1.3967720734271467,
                -1.7144726448949341,
                -1.5401468799379334,
                -1.1061926873926926,
                0.6718449705360536,
                0.110471146999088,
                -0.2539562844916177,
                0.7786082241976644,
                0.3129969580130432,
                1.1011556858294738,
                -0.6442273470172235,
                1.734145628484757,
                -1.1781357839951265,
                -2.7055489685362177,
                -1.2033141284558535,
                -0.7905367545624451,
                -0.2256958893413167,
                0.2764892737619794,
                0.2878476831355892,
                -0.4677687139782039,
                0.7955855166113566,
                0.33972446574072196,
                -2.4505415141153657,
                -1.1902139852680638,
                -1.0003472472705826,
                -2.3770767301308453,
                -0.6487401987451743,
                -1.89610362743633,
                -0.37485089824161005,
                1.2566629884598248,
                -0.500910356097157,
                0.902623322844954,
                -0.3420616244690409,
                0.24493411876022175,
                -0.7145283942350291,
                -0.454902238102596,
                -0.5751133905831165,
                -0.6018900296903779,
                1.249410684962813,
                -0.7936643705321594,
                -1.5132306284384511,
                0.5081619781775415,
                -0.015036473032376735,
                0.215358888879821,
                0.14466588144615786,
                1.6379639384927427,
                0.79618455318686,
                0.2913458807573996,
                -0.33030262074324274,
                0.29903636347934315,
                0.0514036246569525,
                -2.665546308429134,
                -1.4255968632591351,
                -0.10437135660916007,
                1.0112933668167183,
                -0.1754941152541599,
                0.16102436946872195,
                -0.4591617150721022,
                -0.1281999972264212,
                0.5605384506534239,
                -1.2949401913594563,
                -0.044852333541758375,
                -0.1767274171281218,
                0.8865563374038147,
                -0.48667560651577224,
                -0.5210558484129185,
                1.7948162500176668,
                1.8766030192021401,
                0.2524866843346357,
                -0.36320448121775295,
                -1.3870883016652513,
                0.55097383228054,
                0.017568372992898033,
                -0.8162963143716525,
                1.8835330849221632,
                0.1857134585705663,
                -0.7147069660030019,
                -0.29786686412221225,
                -1.0979987241021074,
                1.199305650631547,
                0.7652724825497138,
                0.2791320008965385,
                1.9748077009345966,
                2.547418897137259,
                -1.3990659798438758,
                0.8011184721346638,
                0.5922965905929203,
                -0.5642605926526647,
                2.176837874351579,
                -1.7551707738396254,
                -0.9785495096159283,
                -1.0286529189735658,
                -1.7804340304353452,
                1.1607433564855223,
                0.26860646092899787,
                -1.595263818530322,
                -0.2880696257422498,
                -2.489469004319376,
                0.5605110123183751,
                0.6453023503430676,
                -0.39452160902709504,
                1.2455685239311085,
                -0.026864790212783846,
                2.253932365000608,
                -1.0253381334768077,
                -0.1272063375904984,
                1.6324000828496712,
                1.6739623194816005,
                1.8005868734570278,
                1.045911586026431,
                1.0446980131683057,
                3.1399189977978588,
                0.5990423965986212,
                0.34193758247737555,
                -0.6198256800371804,
                -0.9121975767405645,
                -1.3088041727269553,
                1.1090496746347216,
                -0.6945551074595676,
                1.0687836490684737,
                -1.773335813297168,
                0.19295107363042852,
                -1.5317533892641015,
                1.9188807200432856,
                1.6910463967654819,
                2.1762635300881024,
                -0.22847029662317547,
                0.06758164527222417,
                0.49709300092619674,
                0.30987863516340947,
                -0.23755600531581192,
                -0.43193123686563845,
                -0.6988940878144648,
                0.12572704020932182,
                -0.45961623040917426,
                -0.6595838145506894,
                -0.2015150362308263,
                -0.33066352489129186,
                1.247168921756438,
                -0.35517277728219177,
                0.48856672735102546,
                1.451752401515733,
                0.12992586224365205,
                -2.3770964358167395,
                -0.15678645682281317,
                -0.6348676477436712,
                -0.7305576978501422,
                -0.07513793086027477,
                0.2827899857344542,
                0.23249989577859048,
                0.45223377245992413,
                -3.6201223917381036,
                -1.7549630463654247,
                1.0100126328971908,
                0.6211357853953708,
                1.4087352254155208,
                1.0570070346524358,
                0.7686281047378781,
                1.6828986279348515,
                1.1163221064111077,
                2.329557514446214,
                3.1273663228383297,
                0.3568616431308687,
                0.9801473593333431,
                1.919259084544715,
                1.7683365762674825,
                1.447301739506023,
                0.444068047185688,
                -1.1118293910042958,
                -0.5765764656259698,
                -0.2304498117073199,
                0.6680044113773558,
                -0.9358802532427695,
                -0.15801116126273027,
                0.21887236395029486,
                -0.9617905820454735,
                -1.3027222546612993,
                -1.2104566626871267,
                0.41800288336042496,
                1.5847604964982145,
                -0.4684802709178158,
                -1.2724273794869938,
                -0.9882895479302884,
                0.6897471177768035,
                1.6390309575937752,
                1.6651195028982884,
                -1.10741269090319,
                1.0198962749124145,
                0.7306840156869983,
                1.193202453396617,
                -0.6851586764756877,
                -0.26547412284422744,
                -0.9192585792593307,
                -1.0770390692096126,
                -0.08754518188044667,
                -0.8114212605549492,
                1.330538613370704,
                2.2095515162985624,
                1.0902019751615097,
                -1.0013546914172904,
                -0.3219921702417577,
                -0.33847334753216174,
                -0.7925064831639441,
                -0.34979975321867424,
                -1.5302682970720636,
                -0.17999728586345679,
                0.2628085021212468,
                1.2178112496418774,
                0.08485459213965935,
                2.6137002120478394,
                -0.20988298016293647,
                -0.2510647950189439,
                -0.4117656423665985,
                0.1993790823301021,
                0.4027740135814129,
                0.08286236761864244,
                -0.39023998577223395,
                0.842482427089937,
                -1.4670849945581546,
                0.1933026019791341,
                -0.8803449469547582,
                -1.0678181743468962,
                -0.9782988035645543,
                -0.03268089182380809,
                0.6782086052232807,
                0.6344940054561284,
                2.1618501436467548,
                -2.476841971575431,
                -0.04553927539238711,
                -2.100765389427282,
                -1.4600177053652976,
                1.0342795126210906,
                -0.06826291424688836,
                1.3291291300511545,
                2.791736328952886,
                1.0540505845650998,
                -1.2326069841290241,
                -0.3601637327713562,
                0.24728480211108952,
                -0.11583171226360607,
                1.2012490242519884,
                0.5852042974302796,
                2.2574263009239357,
                2.6629423279997098,
                1.47074050208779,
                1.4082451659586668,
                -0.3245071499914057,
                1.3809079181883086,
                0.7418760499567099,
                1.405302593187138,
                -1.6037482823493074,
                0.8476627899715136,
                1.3128078412425477,
                -0.7166644980034577,
                -0.5838015276015561,
                -0.7701582465778068,
                0.7789229129048005,
                1.7028380832708132,
                0.17125827363975862,
                -0.23244476225742045,
                -0.653315228856593,
                0.02616136742420604,
                -0.23207587947722869,
                -1.0140739791319884,
                -0.569791687124097,
                0.08670727522639166,
                -0.5884768741819799,
                0.8720124638981293,
                1.1017917274934865,
                1.655277575361911,
                -0.22978871417720323,
                0.392132069760896,
                1.5227664782145822,
                0.7038530120363119,
                2.0873514945386553,
                1.9290641569221694,
                0.03655506875560834,
                1.9670026040791235,
                -0.4514903858572077,
                -0.27361270422026174,
                -0.9408780683644806,
                0.783656495292517,
                -0.45146005020676383,
                -1.010796162775115,
                -0.3258860329578108,
                -1.0921323790381061,
                0.9723777315060383,
                -0.8914470550329875,
                0.05792582466793094,
                2.2218761921439962,
                1.513956354189143,
                -0.11199847560467534,
                -0.8346333272143402,
                0.6506640537718542,
                -0.5150311485641018,
                -0.5520700366275436,
                1.5171069576999032,
                0.04919769209002826,
                0.3269155605745798,
                0.8356692830029153,
                1.3071920024126171,
                -0.2392664722671267,
                0.8931095631325446,
                0.8018814769772917,
                1.102462631176967,
                1.0265548264248647,
                1.4119257410965165,
                0.4480667107311417,
                1.0166196918855142,
                0.007094359834417428,
                0.19120930684696638,
                -0.2866082572869526,
                -0.6752209933116964,
                1.4189560315147225,
                -1.4544399547949183,
                0.22931400597658502,
                0.29856865986422326,
                -0.7050362202228275,
                -0.9141106302584476,
                1.2171600662161632,
                -1.41693580126558,
                -0.0778970671879972,
                -0.7247468475288557,
                -1.5072432004220513,
                0.21306321850906956,
                -0.7075012328540791,
                -0.9248583189344421,
                -1.1134498363346537,
                0.22428875543717328,
                0.6217398382294761,
                -0.09980753351759265,
                -0.5708458278639494,
                0.9375050351120807,
                -0.2686292406678912,
                1.421941553567391,
                0.17572369816001668,
                0.6256512678356656,
                1.338541462950884,
                -0.21610382194608205,
                0.2973539242531529,
                0.34636693331828855,
                -0.7760208844983428,
                0.6243315882763592
            ],
            [
                -0.8009202884702673,
                -1.4771692693358809,
                0.6861371838287204,
                0.5071746394143669,
                2.362192222271839,
                -0.7365441932811027,
                -1.5582349366462684,
                0.060425163242880435,
                0.6588281366263962,
                -1.1871893449825737,
                -0.9801024772822472,
                0.6072735858646088,
                0.540087257533986,
                0.15452946627252256,
                0.6223812511852742,
                -0.9667137649644079,
                -0.3024393026008803,
                -1.5651504366249842,
                0.2576831192471656,
                0.5222104610451264,
                -1.918971076986609,
                0.9721772032140878,
                0.9306733236555677,
                -0.21003766862529297,
                -0.10951287872024308,
                0.06303191701259452,
                0.6385020792509478,
                -0.7309848060648059,
                -1.1658198376874023,
                -0.16716434471664837,
                0.6488784979480107,
                0.7605344249596958,
                0.659398070976057,
                -0.5603356133483417,
                1.0599044054702316,
                0.5866879806097978,
                0.6426907277559754,
                -0.0909276579683116,
                -1.8864605588393377,
                0.6472598916677081,
                0.07519840191485559,
                0.26692896189171006,
                -0.3457748622552675,
                -0.8710105667335333,
                -0.7724962663141153,
                1.1185281904967581,
                -0.9776522582958349,
                -1.0972542921699318,
                0.27902799839093484,
                2.294369384777099,
                0.5405087646691962,
                -1.2900749859471594,
                0.683616443344942,
                -0.4920760004678404,
                1.0196427966053063,
                -0.31454149699161127,
                2.3016624591694894,
                -0.40235033968406764,
                0.11871174380092553,
                0.4225883591170537,
                0.08584423488251058,
                0.7985107514412505,
                0.6447353101409675,
                -2.132431240521758,
                -1.1542142736764376,
                -1.7322392461796943,
                0.11729692834374543,
                0.2828395095992831,
                -0.011956701383806558,
                -1.746273547185208,
                -1.5359680231809647,
                -1.0038348708347353,
                -1.2161566572619456,
                -1.267242047334223,
                -1.0584340220427755,
                -0.34006775746554585,
                0.9221172764168025,
                0.4573412070463793,
                -0.8498654046941025,
                -0.5899882433371225,
                -0.7021403191136479,
                0.83572898105166,
                1.1727402882800182,
                0.20544580423842213,
                -0.07720239687899308,
                0.42441474337099844,
                -0.5611656043442417,
                -1.0031865708922985,
                0.5020205786030828,
                -0.18860691590204096,
                1.1238620681530105,
                -0.9705971636963615,
                1.193321850699179,
                -0.7220174843226308,
                0.9538711557812324,
                0.2803178113889434,
                -0.7728927472428315,
                -0.6413174842216149,
                0.12716554173607,
                1.1790254061096601,
                -0.28729304323151866,
                -1.8408423325385053,
                0.17840680806090958,
                -0.09113681329818656,
                -0.14145195905336072,
                0.052182518992509745,
                -1.6169813135357416,
                0.30655858587129303,
                -0.26042199484718453,
                1.3861993553852743,
                0.832848049115372,
                -0.6402198310572824,
                -1.6917682775153164,
                0.20365222592456336,
                0.9844439144650435,
                1.2749031630536949,
                0.8154970507137808,
                0.2078879359898481,
                2.5085164580041592,
                -0.14534330914330912,
                1.328967073438804,
                -0.4331033501603141,
                1.1234506652817482,
                1.2137845808634715,
                1.5248969714148044,
                -0.19455007216941245,
                0.28612054247388996,
                1.2753586401400134,
                -0.32311805754209927,
                1.4722980323734494,
                -1.7192775180851714,
                -0.08292771121635853,
                -0.8121466755153918,
                -0.4711097956504431,
                -0.48165860239391073,
                -0.6831780143912918,
                0.5446756060101994,
                0.6524963114064023,
                -0.854417280750755,
                0.9304662793030275,
                -2.147402139841081,
                -0.14745619455643771,
                -0.2992579762568036,
                -2.2498805280626297,
                1.759931009439739,
                0.5126608818304907,
                -0.4720317208933707,
                2.0015176105171624,
                0.5501693394832404,
                0.8258424546304239,
                -0.1434289026739796,
                0.4776029443063176,
                1.8123708402963958,
                2.767667811712161,
                1.992479443329809,
                2.1144778843377443,
                0.6091961748753467,
                1.8815287767522921,
                -0.7650758761336309,
                -1.7496138303025528,
                -1.074412822961845,
                0.4875554916423383,
                0.5964896596653717,
                1.3239664938314544,
                0.13563596119382587,
                0.7508020224216273,
                -1.387718002028737,
                2.1248570025518676,
                0.32880329708575734,
                -1.8303453509165326,
                -0.0555161478391269,
                0.8639398505226402,
                1.7703189108162427,
                -1.6599591832785667,
                -0.15437689211693933,
                0.3799788725390758,
                0.4549612180290242,
                1.1769564443418468,
                2.456379894252953,
                1.319979647111795,
                1.023678256089874,
                1.8632951438721481,
                0.46559091240539996,
                0.8269832696555708,
                2.452263297058914,
                0.015528771977068862,
                -0.04998017298187298,
                -0.6773558716101836,
                2.160540521066713,
                -0.7885985761016302,
                -0.283533037858881,
                -0.45456258241864156,
                -0.6394526108563888,
                -0.3685931894541063,
                0.23787671147094355,
                0.11497670906320803,
                -1.5925162848515593,
                0.6901889096976769,
                -1.0768736172572586,
                -0.5379092027320093,
                -0.5143322993538997,
                0.9043167956235458,
                2.2464453515933465,
                2.379932405697542,
                0.30877264209945,
                0.7200958996792302,
                1.6788915939188775,
                0.21581868945962596,
                0.18851017320290425,
                0.02172949920213864,
                0.14470445637257592,
                -0.10435181398982218,
                -0.806473652831912,
                1.199572256522468,
                1.3150879872073242,
                0.22444755458671795,
                1.843879632573042,
                1.0390691322688042,
                1.1501216869445854,
                0.37809360126250857,
                -0.5638350763058838,
                1.4437040876197689,
                -1.0593318704921013,
                -1.751517863231852,
                -0.22585038507238306,
                -1.7669266667257442,
                -0.2361691997287117,
                2.579144195559038,
                -0.3184332659516302,
                0.9849784703304999,
                2.4804052390285545,
                0.602795157847678,
                1.9757338960394397,
                1.0767673124433312,
                1.6565269787137282,
                1.4144543352536316,
                1.5820750748890593,
                0.5687726323730748,
                -0.2354067300373346,
                0.7748925152415302,
                1.161738031622168,
                0.8717578182134823,
                0.13547740658885227,
                1.8315021709350627,
                2.368173712142513,
                1.0250271732313423,
                1.3085043730444923,
                2.1051417105685863,
                2.237360699818829,
                -0.1438574991604706,
                0.06252290540166475,
                -0.8020741770809429,
                1.571850290483016,
                0.9859136081346016,
                0.4448349498941787,
                -0.708880389149999,
                0.2944858270339753,
                0.9386874331410482,
                0.8924478990221955,
                0.8674213728954133,
                0.5220646762482026,
                0.4528123040911476,
                1.1186266525489699,
                0.8588588948804066,
                2.5296481580133703,
                0.6126886869423944,
                2.3923328164186564,
                0.8749760963735739,
                2.2080434816097485,
                2.504249838128262,
                2.240747293353024,
                1.2995783377533423,
                1.2048499412117788,
                0.8953806639058233,
                1.1753412592327648,
                0.8448059275656373,
                -1.148330481583785,
                0.671654940517839,
                0.6626142545739068,
                -0.43146136293573023,
                -0.5453493127854462,
                0.16392247500247817,
                0.9375373084625879,
                -0.1482379872616826,
                -1.3688818985604567,
                0.3123449641361303,
                1.1301132179842908,
                1.6568499075698522,
                -1.3977001245009977,
                1.048624043942922,
                0.14620095818298987,
                0.3549011164117356,
                -1.0077607785399967,
                1.0238696213998477,
                2.7379983740969807,
                1.7382918048248635,
                0.932556392463235,
                0.32610535200570745,
                1.1024665420176334,
                1.191759599403694,
                2.125126188024779,
                -0.08798346331514417,
                1.3411028346009788,
                -0.8936977809698672,
                0.48982112063750494,
                0.5151785168370177,
                0.77260215898031,
                -1.439272233939313,
                0.6933062336410172,
                -1.4804583552983162,
                1.7745749086406908,
                0.32701551703800485,
                -0.4547252238845162,
                -0.27523299933818973,
                -2.5416120491412113,
                1.350208504900419,
                -0.5547097617924,
                -0.6094693025955584,
                -2.4989285061033493,
                0.7441419177693479,
                0.3700032641521613,
                -0.03129595249899316,
                1.2491729837700645,
                0.5085751339663165,
                1.7920943124733946,
                1.586788777807229,
                -0.6339419874884019,
                -0.7936905751026618,
                0.6578331408636909,
                0.06577674837545638,
                -0.8190404112039783,
                0.22094309921817623,
                0.06263989234185344,
                1.025419881880771,
                -0.16013053122387244,
                -0.7526950560035974,
                -1.3597928299479694,
                -0.19762446908247114,
                1.4687486148758968,
                0.9159436495583625,
                -1.7603846347437138,
                -0.9139444359954607,
                -0.7867066428333884,
                -2.9119984170969513,
                -1.2797873570705944,
                -2.139949317021415,
                -0.4797367850704502,
                -2.1324212627611288,
                0.25904660257237305,
                -1.3791324914369707,
                1.0789091612559967,
                -0.569415945583158,
                -1.3411418321935211,
                -1.8407174876372014,
                -1.1261073980852254,
                -0.5753207118560091,
                -1.3334280139751595,
                0.48470000228009913,
                -0.4811046232981701,
                0.04157552159257163,
                -0.6299288880024378,
                0.6817697402558032,
                0.37240127911098814,
                0.9579486798381398,
                -0.9848129070702304,
                -1.4458467856201596,
                -1.650914220344017,
                0.14649213290736074,
                -2.341780077637355,
                -1.6685194654382831,
                -2.1549045113939163,
                -2.7234320440710325,
                -1.832962991735965,
                -0.3584855779806964,
                -1.2658371691247672,
                -1.5028895557361819,
